燕子 0.0619721 0.329846 0.261256 0.126214 -0.132903 0.553041 -0.0144357 -0.447355 0.228733 -0.239205 -0.0525432 -0.415985 0.132052 0.100172 -0.0878641 -0.334517 -0.140302 0.0791733 0.0952523 0.0619498 0.125194 0.522842 -0.0841919 0.335489 0.473656 0.204491 -0.489432 -0.14723 -0.347923 0.449146 -0.276021 0.180116 0.00976264 0.299807 -0.408178 -0.740894 -0.489439 0.174845 -0.0082215 -0.167459 -0.00998874 0.0347035 -0.386155 -0.0583944 -0.0933792 -0.00980023 -0.184087 -0.0951333 -0.063958 -0.0479536 0.234777 -0.176834 0.385052 0.203889 0.107781 -0.33855 -0.378928 0.318657 -0.20132 -0.091172 -0.537661 0.0462083 -0.226663 0.196625 -0.196545 0.192677 -0.421473 -0.253684 -0.0436993 -0.11956 -0.512925 0.230693 -0.139267 0.169189 -0.11624 -0.233937 -0.0015685 -0.514529 -0.0687832 -0.447036 -0.697834 -0.671395 0.033421 -0.440493 0.440286 0.017285 -0.00468599 0.0265146 -0.313126 0.558909 0.285017 0.119111 0.329259 0.293325 -0.0207792 -0.524888 -0.376215 0.230751 0.224045 0.560608 -0.0961364 -0.420126 -0.0539212 -0.329697 -0.454844 0.392036 0.00768115 -0.219733 0.165748 -0.28032 -0.0741666 -0.136502 0.17099 0.186301 -0.234828 -0.0787894 -0.591591 -0.36916 0.00703147 0.551579 -0.361493 0.245547 0.442728 0.0434004 0.0664944 -0.322463 0.0548639 0.0458161 0.441311 0.0991808 -0.729702 0.416611 0.238558 -0.390527 0.0784785 0.20485 -0.337107 -0.321376 -0.126895 -0.194757 -0.196295 0.345106 -0.0521383 0.0643563 0.210256 0.145392 0.343375 0.00964139 0.397554 -0.559796 -0.1983 0.725712 0.0489837 0.227107 0.48513 -0.200849 0.0777015 -0.18093 0.159956 0.181576 0.30272 -0.525453 -0.641225 0.115671 0.285241 -0.143863 0.596534 -0.0268579 -0.153837 -0.650781 -0.300469 -0.153402 -0.477861 -0.293586 -0.120381 0.246874 0.295519 0.00141333 0.772548 0.357652 -0.323719 0.314667 -0.214625 -0.108544 0.223285 -0.480219 0.129783 -0.166464 0.121583 0.119358 0.462183 0.931174 -0.125743 0.120832 0.158975 0.16072 0.208575 -0.480427 0.129971 0.0275924
富士山 -0.0990742 0.255647 0.586211 -0.657366 0.24358 -0.054897 -0.0534005 0.639637 -0.13971 0.166922 -0.0462551 -0.131905 -8.30074e-05 -0.0318583 -0.0172112 0.25847 0.00282335 -0.281261 0.210508 0.516318 -0.113378 -0.00779124 0.134901 -0.186174 -0.330027 0.283445 0.113084 0.072785 -0.267227 -0.34091 -0.149011 -0.0962942 -0.0616462 -0.355596 -0.342491 0.267241 -0.60635 0.132574 -0.411943 -0.4212 0.208147 0.540867 -0.580117 0.39304 -0.300477 0.0503121 -0.0970712 0.0940062 0.229096 -0.0194846 -0.425577 -0.0834546 0.377829 -0.346052 -0.60137 -0.225562 -0.0668294 0.170484 -0.450779 0.553901 0.183567 0.273765 0.111148 0.374139 0.413834 -0.0662792 -0.59972 -0.170997 0.0354814 -0.289469 -0.435692 0.185462 -0.354188 0.791082 0.243113 -0.23389 0.533892 -0.72584 0.0629198 0.0363008 -0.154066 -0.400358 -0.0641602 0.248736 0.231547 0.0251498 0.241373 0.262768 -0.0211419 -0.203897 0.15062 -0.319843 -0.0702397 0.455188 0.0826926 0.149792 0.266289 -0.225944 0.0915465 0.329261 -0.266899 -0.23611 -0.514737 -0.0501192 -0.38782 0.0670247 0.044075 0.0345702 0.00604002 0.067338 -0.522763 -0.049007 -0.539001 -0.906679 0.0486869 -0.308471 0.593289 0.00124051 0.0644038 0.435517 -0.111692 -0.18271 -0.0849946 0.217191 0.1703 -0.0317465 0.203909 0.274073 0.854771 0.315074 0.467078 0.485462 0.239677 -0.0955208 0.0337592 -0.306428 0.0361832 -0.344187 -0.213087 0.324443 0.10218 0.080334 0.171268 -0.376076 -0.489072 0.221991 0.137682 -0.0750079 -0.166746 0.216051 -0.00917936 -0.172046 -0.0877628 0.219069 0.365395 0.259893 -0.209191 0.120196 0.203228 0.194156 0.00266566 0.0219694 0.140176 -0.692329 0.339235 -0.24722 0.00924783 0.251337 -0.477963 -0.612002 0.0966427 -0.440106 -0.462309 0.334511 0.214534 0.155245 -0.465494 -0.243129 0.0483599 -0.0139077 0.224513 0.240438 -0.484494 0.405446 0.457866 0.144054 -0.0225918 0.124119 -0.631754 -0.687499 -0.056766 0.37383 -0.397552 -0.228868 -0.733709 -0.186454 -0.466426 0.292388 0.214923 -0.2686
螃蟹 -0.0795909 0.381296 0.0502642 0.10473 0.0532066 0.0512567 0.106143 0.252081 0.0157577 -0.0372581 0.131387 -0.0748579 0.157031 -0.144955 0.035797 0.453615 -0.406042 0.0615587 -0.215173 0.072187 -0.0502776 -0.355105 -0.0319558 -0.373059 0.283738 -0.297714 -0.248188 0.0771754 -0.362815 0.217798 -0.0504463 0.262533 -0.146032 -0.215725 0.276776 0.359842 -0.290684 0.230471 -0.0560184 -0.174301 -0.181094 0.0389777 0.136192 0.324881 -0.194538 -0.129132 -0.0515232 0.268915 0.224117 0.012136 -0.30601 0.0332806 0.585995 0.0592581 -0.11595 0.117862 -0.213256 0.0645256 0.146189 0.201281 -0.497895 0.427951 -0.185957 0.23621 -0.0497179 0.103299 -0.146888 0.176719 -0.130901 -0.0422392 -0.314221 -0.124694 -0.421013 -0.155008 0.0423951 -0.0951571 -0.155718 -0.397756 0.146399 -0.428709 -0.0730717 -0.309594 -0.0577506 -0.00325396 0.231437 0.143744 -0.428488 -0.113459 -0.124911 -0.149716 -0.0714085 0.248171 -0.00876673 0.506234 -0.183747 -0.214827 -0.084555 0.0823732 0.163281 0.0315079 0.140801 0.000291521 -0.0504645 0.222773 -0.228238 0.404826 0.129169 -0.034088 -0.0128431 0.518751 -0.105708 -0.153872 0.0635833 0.00957292 -0.0509038 0.232394 -0.234214 -0.102015 0.0776222 0.435705 0.174406 -0.285973 -0.104467 0.163743 0.038695 -0.0866312 -0.618539 0.0347402 -0.0137526 0.161525 0.0357869 0.225754 -0.328244 -0.485475 0.240786 -0.168678 -0.0203134 0.357315 -0.090607 0.00522274 -0.00748942 0.183729 -0.0621623 0.198963 0.285683 -0.00535015 0.00871155 -0.055736 0.223343 0.080695 -0.376285 0.331217 -0.100767 0.129423 0.177371 0.274549 0.119574 0.125607 0.00481458 0.113527 0.333838 -0.478514 0.189299 -0.455227 0.260771 -0.0249293 0.0710375 0.171372 -0.219317 -0.339683 -0.267579 -0.251013 -0.0810347 0.0940979 0.0205643 -0.35866 0.0822144 -0.026995 0.319537 0.394537 0.156143 0.162894 -0.0983616 -0.00516966 -0.0646099 -0.253424 0.130736 0.0223028 -0.0436601 0.0330876 0.0616719 0.439537 0.095003 -0.235668 0.213414 -0.190342 -0.161786 -0.275847 -0.128945 -0.397321
中華民國 0.142499 0.151817 -0.150108 -0.0733685 -0.0537943 0.2869 0.173416 0.15943 0.351594 0.156113 0.2159 0.149226 -0.246611 0.129836 -0.0875807 -0.18491 0.00112556 -0.0796316 0.488463 -0.313755 0.272551 -0.0735855 -0.117526 0.302392 0.23863 0.231391 0.229891 0.16739 0.307417 0.0287841 -0.305107 0.0332474 0.0334703 0.253014 -0.44002 0.0854146 -0.0538489 -0.125522 -0.291259 -0.288709 0.0390651 -0.35378 0.0417478 0.242753 0.0956463 -0.0323407 -0.175707 -0.200911 -0.10448 -0.316788 -0.201212 0.417729 -0.00956411 -0.246967 -0.23077 0.257826 -0.0903115 -0.0475271 0.463778 -0.205454 0.0972398 -0.0972201 0.192125 0.295255 0.0697598 -0.111729 0.115154 -0.25076 -0.0218219 -0.445672 -0.725647 0.1443 -0.214066 -0.160421 -0.255093 0.0235334 0.452944 0.0825461 0.0974931 -0.200291 -0.264147 -0.0550543 -0.159064 0.158178 0.280593 0.131733 0.0820063 -0.0280217 0.10947 0.00666237 -0.0259333 0.277624 -0.215627 -0.66641 -0.110809 -0.1016 -0.449417 0.082851 0.305239 -0.00742278 -0.0241132 -0.372761 0.228202 -0.162221 -0.395558 -0.195744 0.390348 -0.0240912 0.329285 0.353502 -0.328837 -0.154378 0.230574 -0.0273449 -0.280703 -0.255965 -0.268975 0.188908 0.0603549 0.366872 0.180483 -0.324768 0.132979 -0.301593 -0.0477201 -0.171515 0.140899 -0.134072 0.211505 -0.048531 0.0959709 0.00638483 0.443412 -0.280405 -0.329678 -0.0737077 0.126551 -0.256484 -0.201165 0.142693 0.317568 0.117773 0.164063 -0.066837 0.194009 -0.661577 0.171736 -0.182851 -0.0936143 -0.513958 -0.175197 0.139498 -0.210608 -0.161368 -0.379769 -0.0842452 -0.298548 -0.0938948 0.392492 -0.0648439 0.0804703 -0.372191 0.485346 -0.223991 0.209039 -0.0962647 0.0656196 0.559806 -0.164375 -0.744499 -0.0736062 0.281389 -0.024139 -0.129241 -0.018333 -0.0705978 -0.191173 -0.191497 0.147954 0.272528 -0.126613 0.0105511 -0.212705 0.178886 0.350153 0.184834 0.230565 0.25706 0.366111 -0.00643115 -0.326749 0.12466 -0.370106 0.147705 0.0104819 -0.403455 -0.255692 -0.00991962 0.51561 0.181652
紫色 0.159063 0.0228515 0.0469947 -0.369083 0.0323104 0.362692 0.240881 -0.459745 -0.30275 -0.0162659 -0.299835 0.028742 -0.22531 -0.0984687 0.697383 0.0747664 0.122228 -0.333081 0.191435 0.449103 0.269159 0.247045 0.187546 0.159919 0.140271 0.143179 -0.138226 -0.22552 -0.334423 0.145867 -0.713567 -0.142773 -0.110086 0.31893 -0.16403 -0.194829 -0.229475 0.205919 0.100154 0.295509 0.0308271 0.542828 0.161559 -0.387441 0.351202 0.0516645 0.463967 0.368976 0.207707 -0.191951 -0.0102002 -0.0369392 0.14757 0.163623 -0.555362 -0.258689 0.150875 0.228014 0.0772917 -0.151887 -0.332423 0.181697 -0.00605331 0.281268 -0.0553359 0.0752407 0.136113 -0.100955 0.0323119 -0.165154 -0.74586 -0.187953 -0.540668 -0.0061905 -0.153538 0.12533 0.0758143 -0.340528 -0.0764285 -0.231909 0.151701 -0.170335 -0.113338 -0.221775 0.185395 -0.27751 0.271487 -0.0528351 -0.107358 0.243173 -0.210509 -0.0894128 0.306986 0.336456 -0.125029 -0.0365396 -0.228067 0.217765 -0.214696 -0.148083 0.0207547 -0.134545 -0.0286576 -0.526803 0.0760311 0.0930183 -0.0314801 -0.214941 0.287451 0.131271 -0.303217 0.00917672 -0.274344 -0.36459 -0.0496878 0.36305 -0.339112 -0.0509766 -0.0211353 0.0824413 0.0655052 0.28853 0.171921 -0.000451606 -0.361823 -0.146909 -0.538812 -0.0704142 0.0924729 -0.0946742 -0.275211 -0.177764 0.139136 -0.372451 -0.0437589 -0.318715 -0.0076264 -0.404462 -0.0853882 -0.200211 0.381267 -0.0264572 0.0248941 -0.153842 -0.104667 -0.33568 0.181348 0.137247 0.595739 -0.0634776 -0.293179 0.254176 -0.0957685 0.387386 -0.277465 0.420461 0.0115481 -0.293531 -0.0592686 0.0568541 0.357409 -0.0426663 -0.23828 -0.550567 -0.264184 0.232201 0.325173 -0.139633 -0.174638 -0.382566 -0.130656 0.216607 0.0265049 -0.13928 0.272721 0.0745548 0.00691662 -0.0860373 -0.143421 0.244206 0.232029 0.184852 -0.412761 -0.2876 0.107726 0.00107482 -0.103812 0.270937 0.0315088 -0.0670705 0.50528 0.143934 0.0674697 -0.228562 0.087881 -0.236618 0.0302451 0.0507821 0.117619 0.244827
一 0.262366 0.053456 0.222317 -0.0123922 -0.0657069 0.165593 -0.122814 -0.231545 -0.091568 -0.465631 -0.00425537 -0.195069 -0.393472 0.166038 -0.202594 0.050909 -0.107115 -0.0483891 0.136397 -0.132668 0.0957 -0.0618781 -0.0478003 0.190553 0.218651 0.124746 0.2335 0.234729 -0.34957 0.014426 0.122267 -0.3313 -0.246835 0.0897371 -0.139087 0.132447 -0.415289 -0.0450448 -0.261902 -0.0930424 -0.0357324 0.490962 0.277645 0.0725597 0.1108 0.153535 0.0370439 -0.0733672 -0.148852 0.284855 -0.271887 0.118806 -0.0333417 0.0998487 -0.0916977 0.269311 -0.149153 0.0922861 0.178655 0.0177542 -0.31354 -0.0468795 -0.0433021 -0.16024 0.156084 -0.364154 -0.127752 -0.182002 0.223637 0.285462 -0.224155 -0.195654 -0.205188 -0.387439 -0.197175 0.0534181 -0.0820823 0.115189 -0.219616 -0.121845 -0.0759356 0.00303218 0.0493375 -0.615352 0.0999085 0.186829 -0.0185096 -0.157188 -0.0879306 -0.686148 0.135841 -0.418233 0.293731 0.0337102 0.229686 0.113933 -0.0720843 0.419127 0.144633 -0.260642 -0.100108 0.0687819 -0.0782561 0.258695 -0.144366 -0.236806 0.0527282 -0.160789 0.203285 -0.266648 0.119753 -0.378874 -0.329897 -0.00160764 0.146232 -0.0906191 -0.208381 -0.29306 0.31192 0.296707 -0.00978988 -0.169511 -0.0957393 0.284937 -0.126237 0.0510784 0.0491898 0.119015 -0.0369627 0.281783 0.0598362 -0.0471887 -0.094786 0.0878728 -0.11938 0.158586 0.175908 -0.198973 0.081788 -0.0800776 0.314244 0.00472075 -0.238413 0.180979 -0.0744897 -0.202695 -0.0636897 0.301305 -0.204524 0.0610956 -0.250707 0.128116 0.0291389 -0.0424927 0.291317 -0.0807962 -0.00412981 -0.0289729 0.159447 0.147598 0.178182 -0.0484668 0.495758 -0.269288 0.14718 -0.215128 0.00405786 0.187174 -0.393714 -0.173878 -0.137704 -0.181296 -0.198667 0.154305 0.0209419 0.126642 -0.457105 -0.174604 0.199003 0.647464 0.0660202 0.560455 0.10452 -0.0199693 -0.156699 -0.260924 -0.345707 0.156581 0.0610495 0.159165 -0.144977 0.210049 0.0650809 -0.304686 -0.115904 -0.348085 0.0687846 0.0722886 -0.110638 -0.17043
和服 -0.176258 -0.0863636 0.138206 -0.112834 -0.3816 0.0537843 0.0405654 -0.307059 0.260005 -0.19394 -0.0855946 -0.587465 0.000211676 0.256203 0.396866 -0.22214 0.257482 -0.413014 -0.321552 -0.212714 0.38941 -0.587057 0.512121 0.0297815 -0.31317 0.279577 0.236677 -0.152488 0.127956 0.00626516 -0.284038 -0.393219 -0.280018 0.0458161 0.179373 0.357804 -0.344592 0.258018 0.126036 -0.585261 0.276969 0.300008 -0.322502 -0.284706 0.148587 0.255078 -0.0900999 -0.739408 -0.140291 -0.141951 -0.495489 0.116632 0.172402 -0.367224 -0.647548 0.391815 0.141778 0.139904 0.283929 0.25113 -0.325931 0.448207 -0.286737 0.753598 -0.750269 -0.743902 0.0633511 0.179799 -0.0832196 0.0382063 -0.297884 -0.13036 -0.420533 0.140318 0.0598561 0.108301 0.0456115 -0.506891 -0.239505 -0.572756 0.171025 -0.360377 -0.215616 -0.0662276 0.0558785 0.138451 0.208523 0.0144492 -0.554681 -0.0520812 -0.203831 0.0365145 0.595543 0.220142 -0.0679708 -0.494747 -0.782949 0.398407 -0.135959 0.0612889 -0.200038 0.163581 -0.0239676 -0.0838047 0.199404 -0.0137035 0.197617 0.00708207 0.257932 -0.325736 -0.226464 -0.153734 -0.218384 -0.196374 -0.204965 0.361437 0.0218487 0.352242 -0.559768 -0.218724 0.185398 0.036222 0.300078 0.145546 0.149823 -0.171755 -0.24439 -0.413759 -0.0413066 0.458333 0.446959 -0.0821933 0.495834 0.137434 0.16299 0.445501 0.0589537 -0.183698 0.0717184 0.195744 0.48452 0.0667547 0.52963 -0.198722 0.210852 -0.374102 0.286384 -0.0864983 0.482351 0.183416 0.190837 0.235223 0.232905 -0.169435 -0.124087 0.0951162 0.0219933 -0.303262 -0.0800498 0.0358858 0.107261 -0.189254 -0.102369 -0.281599 -0.323311 0.28231 -0.39564 0.690028 -0.198297 -0.187511 0.449345 0.207671 -0.287884 0.245706 0.185427 0.0953028 -0.219434 -0.0946724 0.250008 -0.00401523 -0.00576251 0.357651 -0.456476 0.483356 0.524636 0.653588 0.147527 -0.335157 -0.166517 0.192946 0.229751 0.438412 -0.0210839 -0.0274526 0.225436 -0.347019 0.237123 -0.24375 0.409591 0.115556
軟銀 0.164357 -0.307691 -0.494191 0.777761 0.139613 -0.391988 0.0111299 0.144823 0.170107 -0.351474 0.062205 0.353977 -0.00913533 0.714471 -0.166586 0.469698 0.182345 0.382696 0.0210237 -0.0474659 -0.341538 -0.627662 0.202138 -0.0689822 -0.357345 0.333935 -0.12577 0.0217245 -0.406839 0.250839 0.0573756 0.0313632 -0.337378 0.278013 -0.438422 -0.159946 0.0116756 0.0731047 -0.0213893 -0.339499 -0.126959 0.0104423 0.336558 0.30107 0.759686 -0.0917714 -0.151822 -0.290826 -0.136994 -0.264513 -0.121035 0.110388 0.516678 0.0450918 -0.117195 0.0321614 -0.164126 -0.394383 -0.0272298 -0.232044 -0.115156 0.535532 0.503881 -0.0828266 -0.147091 -1.14711 -0.0796187 0.309331 -0.00675278 -0.242188 -0.321056 -0.364384 -0.154943 0.325083 0.333762 0.00912255 0.20741 -0.116947 -0.284297 -0.219875 -0.325772 -0.250404 -0.394643 -0.0528487 0.0751215 -0.290751 0.0920246 -0.00487319 0.169049 -0.295339 -0.241589 -0.731708 0.0896171 -0.150154 -0.065682 0.040358 0.108915 0.0492893 0.239176 -0.398545 -0.441646 -0.120384 0.0463294 0.233926 -0.283317 -0.22171 -0.308036 -0.390465 -0.0830179 0.10072 -0.24827 -0.00191764 -0.309713 -0.187454 -0.621342 -0.0795119 -0.303863 -0.0778359 -0.115235 0.211453 0.255449 -0.329274 0.830749 -0.0679651 -0.139101 0.473976 -0.2777 0.277123 0.318487 -0.222943 0.312026 0.161888 0.19599 -0.160251 0.147547 -0.0240711 -0.0808543 -0.493368 -0.38597 0.232856 -0.343086 0.354897 -0.0352475 -0.06963 0.145219 -0.312716 0.187502 0.458964 0.263773 -0.62093 0.095845 -0.12581 0.323782 -0.352869 0.580275 -0.0400716 -0.134519 0.396001 0.0471876 0.257077 0.158018 -0.0355455 0.382978 -0.0483817 0.163358 -0.291001 -0.166286 0.24058 0.310415 -0.245898 0.00802383 -0.0460357 -0.0506017 -0.42544 0.143617 0.238759 -0.176968 0.33061 0.412748 0.211599 0.349153 0.197933 -0.179495 0.4377 0.480083 -0.711401 -0.111968 0.59543 0.495051 -0.317144 0.411035 0.778378 0.340725 -0.16716 0.205481 -0.106853 -0.321921 -0.580929 -0.0241103 -0.558455
估狗 -0.103249 0.279076 -0.361685 0.424287 -0.323371 0.2403 -0.0130316 0.0567568 0.0153619 0.271643 -0.434529 -0.207957 -0.144616 0.194854 -0.191485 0.249931 -0.29786 -0.0884017 0.12643 0.0471137 -0.26641 0.0783654 0.0824149 0.223191 0.00898642 0.513268 0.129235 -0.184294 -0.31936 0.379955 0.310015 0.0238776 0.458696 0.319017 0.242148 0.126932 -0.13841 0.0502315 -0.25866 -0.194226 0.044955 0.227625 0.141929 0.143584 0.12457 -0.305403 0.077319 0.103158 -0.280522 -0.164026 -0.526201 0.120605 -0.120034 -0.00461976 -0.514937 -0.24769 -0.295768 0.0237842 0.118171 0.045317 -0.0904846 -0.165486 0.387762 -0.177353 0.161462 -0.0163043 0.261836 -0.387937 -0.282769 -0.206718 0.166134 -0.575749 0.0414649 0.444723 -0.369938 0.248542 0.249931 -0.0795284 0.047528 -0.138157 -0.135341 -0.0231889 -0.402062 -0.188296 -0.232808 0.051813 -0.000327934 0.224648 0.0753155 -0.334824 0.0325207 0.00813968 0.0339039 0.162578 0.0690138 0.277882 0.0743297 0.643976 -0.100719 0.189923 -0.347829 -0.0039628 0.161761 0.196868 0.129267 0.258443 0.0876868 0.431256 0.203644 -0.0837902 -0.140955 0.124676 -0.524031 -0.421121 0.348949 0.128742 -0.293645 0.274494 0.297023 0.284304 -0.0256401 -0.00320668 -0.162286 0.179536 -0.219009 0.00659667 0.0922702 0.0806715 0.0926599 -0.0201376 0.0382673 -0.225509 0.275293 -0.436012 -0.0873641 0.0591867 -0.0203716 0.0269249 0.01088 0.0631628 -0.0142368 0.156499 -0.216161 0.14216 -0.050396 0.103949 0.348212 -0.0756733 0.33422 0.144311 -0.124187 -0.0734857 -0.139795 0.499535 -0.0261177 -0.170652 -0.165993 -0.177515 0.305737 0.122996 -0.167909 -0.0468293 0.0174529 -0.304954 -0.36785 0.189899 0.269802 0.329739 0.0184126 -0.354869 0.103596 -0.616681 -0.00270226 -0.0565764 0.116701 -0.26747 -0.108748 -0.0989598 0.387608 0.381376 -0.0396269 -0.116546 -0.261672 0.127754 -0.291602 -0.113143 0.0333056 0.178069 -0.177721 0.12443 0.0896939 0.276382 -0.156014 -0.250863 -0.296055 -0.0185382 -0.551901 -0.275944 -0.0825204 0.159666
CHROME 0.356899 0.174916 0.361961 0.0179102 0.111336 -0.149759 0.222179 0.0826848 0.166697 0.0427945 -0.324122 0.0593813 -0.0833526 -0.110496 -0.142719 -0.067423 -0.423921 -0.568434 0.0685611 -0.229687 -0.239941 -0.00581323 -0.210717 -0.138929 -0.443315 -0.224833 0.315906 -0.170785 -0.362305 0.739292 0.100036 -0.0484442 0.289439 -0.0316577 0.254029 -0.16837 -0.217803 -0.123665 -0.393382 -0.43226 0.107434 -0.073535 0.126669 0.121023 0.0782192 0.0831556 -0.0872986 0.898434 0.345388 -0.291803 -0.227591 -0.0507056 0.0704362 0.138149 -0.00379189 -0.542099 0.504774 0.117882 0.420033 -0.0797221 -0.385514 -0.183995 -0.281813 -0.38188 -0.555882 -0.293778 -0.115163 0.185188 -0.431672 -0.263614 0.447516 -0.582559 0.748722 0.276296 -0.299764 -0.176238 0.608457 -0.304329 0.170604 -0.499559 -0.301767 0.245141 -0.370702 0.137367 0.412282 0.209902 -0.0694516 -0.309009 -0.413718 -0.0720646 0.0781183 -0.127216 0.0398118 -0.125856 0.246704 0.527004 -0.110207 0.405684 -0.302171 0.0933172 -0.516178 -0.350589 0.211431 -0.181811 -0.256382 -0.0117622 0.0642842 0.285455 0.0653646 0.434893 -0.128712 0.330987 -0.489376 -0.481754 -0.576696 -0.227321 0.201877 -0.175963 0.164673 0.598852 0.0825083 -0.241028 -0.29476 0.249718 -0.323349 -0.47381 -0.0787115 -0.252273 0.659424 -0.026505 0.113953 -0.275042 0.0679645 -0.165708 -0.328511 0.266644 0.023949 -0.369969 -0.278726 0.55098 0.190499 0.531156 -0.0267608 -0.144425 -0.0744386 -0.297999 0.236945 -0.690787 0.24125 -0.318103 -0.192138 -0.264932 -0.232991 0.125212 0.375731 -0.445518 -0.159693 -0.12226 -0.0877935 -0.390924 -0.24138 -0.0284539 0.0513719 -0.0464255 -0.142669 0.227673 0.723322 0.239699 -0.152657 -0.574314 0.15694 -0.039621 0.268606 -0.0262782 -0.0205579 -0.181889 -0.595277 0.806911 0.510351 0.331025 0.390174 -0.218509 -0.291467 0.17775 -0.569919 -0.0181511 0.00625979 0.293327 0.240458 0.24768 0.0111516 0.758217 0.16113 -0.640271 0.336771 0.357788 -0.328027 -0.270157 0.0473151 -0.342846
LEAF 0.440369 -0.56472 0.190741 0.285231 -0.368295 0.351865 -0.416238 -0.332349 -0.104673 0.118901 -0.45613 0.669239 0.104138 -0.402281 0.0507688 0.256872 0.383377 0.272299 -0.0138279 0.399973 0.411596 0.100445 -0.265473 0.604528 -0.388962 0.336299 -0.109138 0.474156 0.0656517 0.192557 -0.625521 -0.124071 0.0396589 -0.167997 0.0824831 0.280718 0.00287682 0.618528 -0.257827 -0.057628 0.339055 -0.292529 0.300241 0.272642 0.451133 -0.573865 0.355355 0.421732 0.104733 -0.426442 -0.0128881 -0.131802 -0.1038 0.612879 -0.580274 -0.295755 -0.115911 -0.0957729 0.421869 -0.130098 -0.585419 0.160887 -0.0313495 0.524139 -0.361009 0.0472707 0.396394 -0.0475619 0.134327 -0.273532 -0.188177 -0.216626 0.76283 0.412425 -0.695677 0.146572 0.0907954 0.175126 0.236568 -0.505534 0.588291 0.209301 0.662682 0.0273508 0.418639 -0.400187 -0.521376 0.170315 -0.372127 -0.64383 0.209984 0.102829 -0.0164599 -0.122234 0.0608906 0.589867 0.0195081 0.598049 0.19113 0.230762 -0.595256 -0.0431691 -0.189854 -0.0237327 -0.415195 -0.251039 0.367664 -0.184468 0.37363 0.216874 -0.358337 0.436349 0.0111768 0.0768562 0.0994289 0.34773 -0.183534 -0.681874 0.609486 -0.251345 -0.191441 -0.301366 0.115872 0.20775 0.238196 -0.298385 -0.652146 -0.180869 0.476616 -0.288842 -0.119868 -0.130384 0.48288 -0.214847 0.046756 0.186802 0.206496 -0.420586 0.301107 0.00315659 0.588206 0.112937 -0.021105 -0.2644 -0.292607 0.64366 -0.154412 -0.666301 0.131562 -0.363638 -0.0354069 -0.132125 0.69277 -0.276463 -0.298084 0.024415 0.229251 -0.234245 0.092847 0.537609 0.205539 -0.228914 0.348217 -0.786547 -0.370444 -0.240237 -0.272236 0.399455 -0.101468 -0.486195 -0.115989 -0.000100024 0.0613922 -0.161043 0.0896232 -0.0830253 0.0685112 0.773513 0.256849 -0.261048 -0.199346 -0.216575 -0.741337 -0.354294 0.0352617 -0.413206 0.189217 0.715244 0.354058 -0.620865 0.144213 0.618046 0.589785 -0.652872 -0.0882954 -0.263608 -0.107257 -0.149737 0.3764 -0.313694
獅 -0.410778 0.0369056 -0.036962 -0.0781233 0.0399175 -0.055509 0.107815 0.269062 0.0172154 -0.597232 0.0323152 -0.0390135 -0.0406575 0.24804 0.0623614 -0.0398348 0.0741242 -0.266102 0.184697 0.510056 0.287213 -0.0791212 0.119075 -0.299546 0.404794 -0.244111 0.147958 -0.08504 0.0605211 -0.264129 0.295009 0.430119 -0.0110933 0.243271 -0.0674199 -0.297696 -0.682881 0.0631999 0.249348 0.143383 -0.180972 0.0977739 0.267791 0.0209643 0.0266409 0.139571 0.0993052 -0.0616569 0.00462309 -0.0843088 -0.0743422 -0.317616 0.353129 0.365282 0.125917 -0.0112589 0.0784381 -0.0094109 0.574628 -0.147011 0.123088 0.095768 0.298708 0.401964 -0.0450836 -0.105744 0.385278 0.174652 0.119756 0.206238 -0.103502 -0.191776 -0.324582 0.260983 0.00679221 -0.173554 -0.0781074 0.23399 -0.255232 -0.592446 0.0384304 -0.430637 -0.438974 -0.246312 0.182265 0.461255 0.0301208 -0.0485705 0.437379 0.118708 -0.0276979 0.403753 0.400168 -0.405497 -0.343256 -0.165107 0.546893 -0.311451 0.0622363 -0.098444 -0.126678 -0.293199 0.0351658 -0.115326 -0.438859 0.450847 0.0308743 -0.0146496 0.161079 0.0423381 -0.398968 -0.23157 -0.0485182 -0.173673 0.332237 -0.0958064 -0.0893918 0.32901 -0.294748 0.492533 0.199602 -0.18398 0.335028 0.300247 -0.36506 0.304473 0.235874 0.426621 -0.0881695 0.15765 0.0580462 -0.0301783 -0.00440299 -0.13901 -0.393361 0.356138 0.288724 -0.253375 -0.575021 0.242009 0.163352 0.465687 -0.450448 0.406054 -0.0279326 0.0154586 0.0302266 0.434254 0.301494 -0.484901 0.133808 0.748508 0.182771 -0.0204879 0.0101437 0.388706 -0.0242505 0.254634 0.277577 0.327031 -0.248757 -0.131711 0.529362 -0.680872 -0.0161586 0.118652 -0.356177 0.274034 0.411598 -0.303561 0.0618039 -0.318344 -0.660484 -0.405199 0.181148 0.0675751 0.157828 -0.0613216 0.0655396 0.133169 0.0189734 0.5426 0.1856 -0.114513 -0.0584546 0.232888 -0.0209457 0.000433868 0.194579 -0.167671 0.0780181 0.846658 -0.317534 0.190889 -0.041971 -0.179712 -0.0873812 -0.246856 0.188244 -0.157136
大蔥鴨 -0.196973 -0.116815 -0.277247 -0.039214 0.250572 0.0830665 -0.0713434 0.181896 -0.320613 -0.210358 -0.120006 0.0191435 0.8872 0.0514735 0.204885 0.299755 -0.217052 0.0748727 -0.0471017 0.162311 0.22646 0.830303 0.188005 -0.239306 0.560025 -0.35113 -0.539668 0.318097 -0.12189 -0.158919 0.00336155 0.10215 0.168389 0.265058 0.236266 0.317303 0.0648066 0.273111 -0.066257 -0.187473 0.164697 -0.31348 0.358653 0.152949 0.172735 -0.407532 -0.0590662 -0.0720356 -0.0387553 0.356476 -0.268778 0.036149 0.554789 0.245407 0.0936545 -0.0167231 -0.311537 0.394907 0.495215 0.277779 -0.786082 -0.0159691 -0.0504094 0.118863 0.188061 0.263413 0.130116 -0.271132 -0.493008 0.0327906 -0.325528 -0.384744 -0.21617 0.174903 -0.0646069 0.359461 -0.079394 -0.756384 0.382644 -0.239853 -0.115776 -0.617423 0.0887512 -0.187773 0.283676 0.439958 -0.277961 0.263246 -0.146256 -0.52674 0.37353 0.65935 -0.305303 0.422197 -0.462536 0.179486 0.0055102 0.156475 -0.248517 -0.344099 -0.0954943 -0.0743409 0.320444 -0.235119 0.284857 0.272473 0.127523 0.321324 0.19014 0.502228 -0.317237 -0.304289 0.36305 -0.0920153 -0.294913 0.101925 -0.424009 0.172022 0.0706931 0.442598 0.460103 -0.507303 0.59545 0.405075 0.050835 0.657287 -0.597769 0.328045 0.431167 0.162518 -0.135254 -0.0436599 -0.296173 -0.168379 -0.120561 -0.277939 0.190229 0.371619 0.0934376 0.37986 0.259012 0.237571 0.48321 0.491766 -0.0446423 0.0911328 0.209119 0.0280657 -0.0834864 0.0439732 -0.145208 -0.00561973 0.120185 0.159454 0.101793 0.157355 -0.0242438 -0.292016 -0.0445072 0.206241 0.43683 -0.069983 -0.0794875 -0.209331 -0.331885 -0.190903 0.43665 0.160399 -0.5709 -0.154025 -0.135122 -0.426765 0.543244 -0.000672526 -1.38677e-05 -0.753557 0.110773 -0.0518142 0.0195605 0.456617 0.00935797 -0.146586 -0.154599 -0.10014 0.654076 0.535587 -0.376112 0.210008 -0.0402097 -0.321681 0.0266488 0.269169 -0.180948 0.274085 -0.32215 -0.154179 -0.576548 0.0402259 0.363564 0.0769534
頂新 -0.358679 -0.0739146 -0.365407 0.170907 -0.204376 0.0351713 0.710544 0.100396 -0.308091 -0.417411 0.397306 0.380872 -0.0757366 0.26381 -0.65787 0.00331949 -0.182801 0.655649 -0.249812 0.512802 -0.245489 -0.15083 -0.00850041 -0.16033 0.0214261 0.420616 -0.474741 -0.379941 0.280932 -0.225093 -0.0666937 -0.603108 -0.130924 0.373818 0.44248 -0.00127551 -0.0468399 -0.426195 -0.554771 -0.111312 -0.0818663 0.107791 0.305657 0.241535 0.18093 -0.241626 0.529609 0.0454581 -0.306861 -0.188269 0.409111 -0.279665 0.23532 0.151641 0.184959 0.448349 0.266985 -0.606174 0.304546 0.231805 -0.281717 0.345527 0.390693 -0.455752 -0.253845 -0.585406 0.180943 -0.111611 -0.488327 -0.515551 -0.658269 -0.470053 0.154321 -0.557945 -0.392932 -0.00934342 0.46806 0.307526 0.266883 0.367039 -0.0244226 -0.412754 -0.0979446 0.308066 0.0559468 -0.227177 -0.425089 -0.199271 0.0514334 -0.130187 -0.215529 0.131307 0.37551 -0.116436 0.383702 0.259487 -0.103409 0.76103 -0.185496 -0.182802 0.422142 -0.390106 -0.0636312 0.693525 -0.0957983 -0.0971066 0.168568 -0.051573 -0.0454112 0.418301 0.214552 0.00447356 0.317684 -0.151992 -0.334984 -0.459273 0.985095 0.00189945 0.208458 0.675398 0.41924 -0.710801 0.36838 -0.0159141 -0.307776 -0.0181067 0.0322939 -0.0635558 0.0453498 -0.675626 0.111173 -0.428134 -0.235424 -0.600072 -0.498568 0.168627 -0.166026 -0.441719 -0.112554 -0.173961 0.302906 0.327452 -0.229685 -0.733297 -0.3283 -0.237959 0.133374 0.333148 0.166175 -0.00912388 0.650124 -0.182846 0.232043 -0.517704 0.559179 0.117243 -0.352005 0.118163 0.392415 0.0544251 0.402937 -0.0329982 0.0467303 -0.741265 0.348883 0.552508 0.555081 0.111766 0.0366428 -0.0759689 0.135503 -0.226549 -0.339051 0.0220556 -0.371895 0.376652 0.266601 0.457711 0.704832 0.00543005 -0.30195 -0.238438 0.906047 0.130007 -0.259672 -0.561487 0.111487 -0.171308 0.125414 -0.163743 0.139268 0.352313 0.487032 0.299853 -0.0900241 -0.207471 -0.484598 -0.626479 0.231068 -0.532486
宋楚瑜 0.416827 0.551445 -0.279103 -0.129061 -0.651408 0.0145836 -0.0052788 -0.443454 -0.200352 0.242414 -0.583745 0.21236 0.288132 -0.0926844 -0.398641 -0.0148397 0.120373 -0.0404727 -0.285243 -0.142575 -0.0863366 0.340298 0.119805 0.309652 -0.405315 0.0299606 -0.0228389 0.136464 0.252609 -0.0127599 0.0299632 0.0170611 0.00432226 -0.09466 -0.170768 0.197464 -0.0231022 -0.0323594 -0.261385 0.744219 0.0210954 -0.393796 0.282562 0.259245 0.202754 0.0973977 -0.454719 0.181453 -0.225302 0.00452833 -0.0522919 0.125808 -0.209609 -0.0346175 -0.455069 0.497322 0.549595 -0.332707 0.469666 -0.158798 0.190456 0.0285585 -0.229109 0.105616 -0.215657 0.127095 -0.341285 -0.156423 0.140319 -0.301459 -0.291758 -0.306769 0.314611 0.221203 -0.736679 0.011044 0.00831586 -0.254314 0.596742 -0.11138 0.00236825 0.0939744 -0.167423 0.24221 0.227784 -0.324413 0.312388 0.416392 0.205991 -0.572467 -0.568649 -0.00476404 0.0926799 -0.565162 0.0676505 0.21885 -0.426492 0.147961 -0.101405 -0.332328 -0.0355095 -0.183251 0.148758 -0.302067 -0.502165 -0.344711 0.199765 0.123859 0.500954 0.545247 -0.125226 -0.473842 -0.0793785 -0.236235 0.0258189 -0.100565 0.576747 0.112853 0.439443 0.481027 0.310813 -0.437126 -0.0311015 -0.0773311 -0.294942 0.0367568 -0.338172 -0.649555 0.0068694 0.225269 -0.193258 0.0550268 0.411044 -0.755235 -0.247025 0.167127 0.020496 -0.496546 -0.407604 0.204569 -0.00885561 0.800025 -0.026338 -0.396045 -0.681351 -0.0162376 -0.158831 -0.52941 0.175973 -0.470515 -0.295514 0.372304 0.0776734 -0.0346917 -0.616692 0.201364 0.111597 -0.0949584 0.0429144 -0.111855 -0.514026 -0.253971 0.418914 -0.45429 -0.0178702 0.183673 0.237007 -0.36141 0.116386 -0.106274 0.00985599 0.11591 0.156791 -0.0417437 -0.293867 0.125292 -0.224533 0.0165792 0.170034 0.120239 -0.246957 0.541182 0.323252 0.0642337 0.239666 0.0929653 -0.241061 0.150574 0.0770946 -0.321514 -0.0886156 0.214273 0.084086 -0.123413 0.372936 -0.220251 -0.0418542 0.215771 0.742055 -0.150608
水 -0.169619 -0.118472 0.266228 -0.165728 -0.110499 0.287573 -0.0418988 0.0396521 -0.0602809 -0.397788 -0.113605 -0.302882 0.049835 -0.20793 0.249755 -0.0395464 0.191926 -0.0102231 0.0671846 -0.323253 0.298814 0.31508 0.372258 0.138771 -0.0611694 0.373788 -0.177133 -0.294855 -0.455831 -0.007523 0.47269 -0.242348 -0.16006 -0.0844152 0.0174854 0.00441445 -0.161817 0.165516 0.142057 -0.119979 -0.0890341 0.124337 0.126933 0.0601507 0.0853985 -0.0495769 0.38276 -0.05794 -0.0742992 0.0679213 -0.0649589 0.203665 0.545758 -0.152789 -0.234479 -0.0904163 0.0837545 0.479156 0.156047 -0.0556153 0.137766 -0.0727788 -0.241639 -0.0437311 0.158872 0.178721 0.20815 -0.240147 0.0436654 -0.0395874 -0.295616 -0.399887 0.170185 -0.0754682 -0.0696178 -0.0984348 -0.156444 -0.0822263 0.159631 -0.163539 -0.169544 -0.17564 -0.114206 -0.293069 0.28942 0.277099 -0.0390168 -0.20613 -0.125828 -0.165897 0.215765 0.376672 0.377986 0.258412 0.303981 0.0734359 0.018785 0.00349762 0.137603 0.13116 -0.155475 0.134359 -0.142816 -0.0303022 0.255391 -0.181684 -0.0356826 -0.451304 0.354616 0.342518 -0.218056 -0.240438 -0.0680966 -0.0955592 -0.381434 0.0328711 0.113321 -0.186118 0.133097 0.343107 -0.0935583 -0.0928369 -0.0604095 -0.259502 0.39139 -0.379753 0.282977 -0.102202 -0.0994495 -0.276866 -0.335946 -0.0435635 -0.164208 -0.230751 -0.18792 -0.277802 0.0238535 -0.521037 -0.0326333 0.0240879 -0.0875556 0.0166717 -0.0931598 -0.0324985 0.179843 0.0605183 0.046629 0.202314 0.0834685 0.231326 -0.00991446 -0.021359 0.0890957 0.357199 0.0814644 -0.127682 -0.0728765 -0.101401 -0.155774 0.0986223 -0.0370082 -0.229924 -0.073508 -0.411426 0.20639 -0.102921 0.496374 0.594307 -0.357155 -0.247707 -0.0982896 -0.1671 -0.0544312 -0.0300577 0.20237 0.19244 -0.355728 -0.161935 0.17286 0.599469 0.193869 0.245032 0.231417 0.312787 0.194552 0.564899 0.364533 -0.0448652 -0.029019 0.000286837 0.0706439 0.484909 -0.117257 0.155164 0.0332021 -0.0807986 -0.0750199 -0.0501334 0.223353 -0.395928
媽媽 -0.342848 -0.0735323 -0.0664899 0.183041 0.0834591 0.193101 0.00511537 0.15519 0.241019 0.0503934 0.0715477 0.0200276 0.196321 0.148609 -0.358262 -0.0885272 -0.134849 0.0191982 0.0465842 0.358757 0.105992 0.0581208 0.00264918 0.466911 0.120402 -0.0700931 -0.151769 -0.0444027 -0.283332 0.245246 0.257579 0.178603 0.134728 0.0426388 -0.0247955 0.335542 -0.357489 -0.166565 -0.173961 0.01948 -0.0348133 0.17292 0.0805456 0.148704 0.17731 0.0834933 -0.016231 0.0374243 -0.173051 -0.0150437 0.140334 0.191073 -0.242767 -0.198851 -0.308507 0.121221 0.0212592 -0.0797952 0.28576 -0.0925065 -0.313796 0.2487 -0.170438 0.0671751 0.116997 0.114989 0.165832 -0.184156 0.29917 0.199007 0.000480199 -0.303151 -0.194402 0.0876882 -0.110768 0.341011 -0.322827 -0.0910186 -0.0288995 -0.2211 -0.264198 -0.555313 0.114495 0.146636 0.088872 -0.180508 -0.0324372 0.213574 -0.0981988 -0.294011 0.284698 0.348325 0.103327 0.408818 -0.197948 -0.109231 -0.0890596 -0.282106 0.369389 -0.212114 0.211613 -0.0938511 0.356449 0.221885 -0.0179911 0.141646 0.0460925 0.087431 0.0115618 0.388863 -0.200736 0.0223805 0.0392027 0.0757072 -0.223628 -0.148197 -0.178284 -0.0355025 0.290908 0.261662 0.0856605 0.0565529 -0.00444962 -0.150559 -0.162019 -0.0374642 -0.150622 -0.125154 -0.337268 -0.3686 0.140346 -0.404464 0.0228721 -0.311623 -0.0493617 -0.152475 0.0961842 0.091534 -0.0657399 0.0996737 0.431083 -0.0128561 -0.103675 -0.181079 -0.00313137 -0.0484251 0.0540159 0.190068 0.0201142 0.101635 -0.00436605 0.16524 0.0209223 -0.344493 0.0476495 -0.205014 0.0624401 0.627195 0.234395 0.0204583 0.461183 -0.019832 -0.0247721 -0.277064 0.172074 0.0303363 -0.0378233 0.0874927 -0.255969 -0.154944 -0.313172 0.0351522 -0.237462 0.130495 0.393401 -0.0399096 -0.272737 -0.159586 0.301277 0.397606 0.294372 0.780601 0.207933 0.272159 -0.054873 0.0280363 -0.541338 0.534742 -0.0628061 -0.0930152 0.0228805 0.553483 -0.210812 0.10075 0.159797 0.0831022 -0.107379 -0.100311 0.202836 -0.142051
硬盤 -0.0600652 0.193369 -0.116267 0.219028 0.0611235 -0.241884 0.274994 -0.0426715 0.338558 -0.0303261 -0.556949 -0.0644434 -0.611207 -0.092895 -0.0842991 -0.662534 0.174639 -0.454466 0.330098 0.187729 -0.0112346 0.346762 -0.160447 0.0848097 -0.35612 -0.296076 0.418037 0.430074 -0.55784 0.313371 -0.0390022 -0.399416 0.311834 0.0708859 -0.0191865 0.339951 0.269321 0.147814 0.0818086 -0.243041 -0.0857135 -0.39074 0.794024 0.0393966 0.386154 -0.375143 0.169085 0.692307 0.170176 0.549761 0.0217059 -0.220578 0.232961 0.186621 0.628672 0.136549 -0.12983 0.0889039 0.451106 -0.0294601 0.490834 -0.28209 0.340727 -0.531782 -0.199236 -0.291349 0.156895 -0.316854 -0.322038 -0.427924 -0.0266992 -0.722101 -0.0220871 0.244589 0.0820367 0.529971 -0.0369915 -1.04172 -0.0908342 -0.425288 0.0335417 0.36781 -0.0590454 -0.282584 0.389845 0.00626198 -0.330531 -0.280007 0.0555705 -0.403835 0.571587 0.30535 -0.176481 0.107342 0.342926 0.19948 0.16955 -0.257766 0.223802 -0.232647 -0.269043 0.310729 -0.0964203 0.504522 0.621234 -0.0722809 -0.469703 0.342513 0.303791 -0.384028 0.0344104 0.224468 -0.304579 -0.488023 -0.37438 -0.644966 0.465134 -0.391977 0.212465 0.38096 0.216941 -0.357493 -0.11624 0.15901 0.35223 -0.0716507 -0.452468 -0.1055 0.191693 -0.785851 0.0304826 0.919186 -0.334463 0.113653 -0.154236 -0.750902 0.194125 -0.547317 -0.556101 0.543042 0.722439 0.00200647 -0.166774 0.211894 -0.00280174 0.266236 0.0942546 0.520361 -0.0132357 -0.780921 -0.949514 0.170383 -0.0244199 -0.130718 0.671465 0.101207 -0.139191 -0.409644 -0.42167 -0.051559 0.337974 -0.190457 -0.678618 -0.472358 -0.0103657 -0.569656 0.489786 0.181841 -0.00123051 -0.290036 0.021433 -0.306995 -0.274471 -0.249686 -0.12569 -0.389782 0.0131411 0.0480577 -0.164143 0.440699 -0.00963469 -0.112565 -0.0212033 1.04228 -0.559475 0.299676 -0.504377 0.849124 0.00639337 -0.194372 -0.232936 0.853817 0.420373 -0.288498 0.268437 -0.216184 -0.271169 -0.000622486 0.205788 -1.12683
江南 -0.286324 -0.160438 -0.429652 0.545868 -0.491941 0.280726 0.317412 0.157325 0.613318 -0.544866 -0.236586 -0.221657 0.100378 0.162236 0.467468 -0.371166 0.288735 -0.385133 0.305834 -0.487886 0.31182 -0.0341919 -0.0764242 -0.171775 0.00473474 0.0475167 -0.35653 0.513152 -0.0646293 -0.35078 -0.156074 0.0948421 0.292546 0.0777836 0.224133 0.081452 0.0922664 0.0542655 0.0453889 -0.291639 0.0923512 0.119687 -0.434587 0.239555 0.295806 -0.186218 0.339354 0.0500808 -0.390865 -0.135222 -0.0651205 -0.188738 0.341954 -0.394606 -0.341967 0.261573 -0.463527 -0.0348778 -0.156215 0.397773 -0.321807 0.440793 0.096943 0.565006 -0.292676 0.100194 -0.320619 0.09503 -0.22053 0.308029 -0.608655 -0.0319638 -0.447904 0.0614259 0.0241886 0.173061 -0.181921 0.4118 -0.277708 -0.302555 0.109012 -0.545556 0.353753 -0.529439 0.491908 -0.247016 -0.0187331 0.702386 -0.175292 -0.0726722 -0.085976 -0.582674 -0.127813 0.336547 0.185802 -0.149236 -0.0543562 0.358395 -0.357182 0.460345 0.0335924 0.135384 -0.0589425 0.33009 -0.259613 -0.277925 0.146647 0.171963 0.11906 0.214505 -0.0399485 -0.0954016 0.315874 -0.201203 -0.155234 -0.263512 -0.156959 -0.457059 -0.141422 0.309708 0.0926904 -0.0507655 0.153379 -0.488875 -0.149016 -0.398743 -0.229014 -0.148023 0.017494 0.233854 -0.290895 -0.181299 0.476844 -0.456779 -0.167834 0.273376 -0.0689613 -0.373059 0.295929 0.608224 0.211917 0.450532 0.756801 -0.289644 -0.557465 -0.0194772 0.387008 -0.200111 -0.0233812 -0.0740389 0.270994 0.179282 0.00907832 -0.497431 0.444247 0.381693 -0.33488 -0.441557 0.574682 0.42644 0.339178 0.403009 0.354155 -0.206882 0.0356289 0.0758415 0.0331655 0.0147247 -0.219793 -0.499778 0.16749 0.334754 -0.368265 0.0143782 -0.301655 -0.15017 -0.0675943 -0.052905 0.476195 0.19611 -0.196 0.00478333 -0.329333 0.161277 -0.308406 -0.0422816 0.342109 0.371416 -0.597398 -0.296204 0.267277 0.949896 -0.229927 0.178439 -0.435305 0.551608 -0.0632953 -0.411119 0.106055 0.508034
宜蘭 0.0166595 0.428552 -0.249083 -0.0744649 0.0746699 0.392384 -0.237974 0.281187 0.228126 -0.0634907 0.149906 -0.242178 0.0159312 -0.241692 0.0158538 -0.126528 0.320066 -0.223799 -0.0749725 0.142988 0.118144 -0.360139 0.145454 -0.120243 0.178936 0.428275 -0.238426 -0.0913301 0.31477 -0.33253 0.00440387 0.417627 -0.0350187 0.0983662 0.213329 0.139178 -0.43633 0.0617643 -0.214078 -0.00959405 -0.130504 0.205203 0.405925 0.52911 -0.171391 0.0310343 0.399143 0.100337 0.0177732 0.124694 -0.245648 -0.0420741 0.48897 -0.512788 0.0358168 0.214648 0.302572 -0.0965586 0.308859 -0.182768 0.439749 -0.370046 -0.270506 0.0995236 -0.0568819 0.236114 0.20947 -0.511302 -0.022546 -0.407157 -0.327887 -0.120648 0.213847 -0.159172 -0.0378199 -0.0314422 0.0355843 -0.044737 0.0396155 -0.113759 -0.342895 -0.236258 0.171175 0.03468 0.241823 -0.0903646 0.158473 0.330981 -0.198395 0.0285845 0.0688136 0.0489455 0.155143 0.0869816 -0.245231 0.0889671 0.145383 0.178428 -0.0594489 0.621744 0.199001 -0.0239835 -0.462693 0.312807 -0.0093756 0.213404 0.225831 0.0800412 0.0705138 0.317069 -0.145476 -0.203387 0.160342 -0.314576 -0.211791 -0.301601 -0.177521 -0.0719355 -0.00559285 0.131545 0.496164 -0.343297 0.00168833 -0.263653 -0.207462 -0.275862 0.0323784 0.0100928 0.0208963 0.53962 -0.197579 -0.553011 -0.0244215 -0.0877605 -0.120287 0.202685 0.463621 -0.418741 -0.246859 0.138018 0.00179322 0.130594 -0.0552473 0.458815 -0.240199 0.0821221 0.368142 0.0087663 0.251426 -0.27412 0.21497 -0.0678558 -0.320754 -0.353107 -0.301162 -0.172862 -0.150815 -0.144836 -0.11001 -0.0870273 0.270509 0.389825 -0.111389 -0.0739517 -0.0277771 0.116884 0.00603333 0.31415 -0.197379 -0.527536 -0.239729 -0.283025 -0.267067 -0.0278384 0.137173 0.0960572 -0.194243 -0.212545 -0.130289 0.330645 -0.110764 0.405367 0.027623 0.000304503 -0.315058 -0.452979 -0.205799 -0.298818 0.0379406 -0.356814 -0.00223871 0.499414 -0.164271 0.116012 -0.207954 -0.199566 -0.298055 -0.189402 0.192964 -0.191778
咖啡杯 0.177161 0.0866106 0.357486 -0.160321 -0.300879 0.0378126 -0.224628 -0.502557 0.225136 0.0449616 0.261024 -0.10016 0.22342 -0.416232 0.169341 -0.348246 -0.192807 0.41272 -0.197564 -0.0267288 -0.102267 -0.0760268 0.541877 0.221368 0.135167 0.0338504 0.223913 -0.366598 -0.119891 0.439381 -0.130841 -0.292392 -0.074142 0.405551 -0.341995 0.126843 -0.677231 0.849998 -0.0433967 -0.141129 0.0173107 0.0448125 0.283606 -0.0113564 -0.0207466 0.0846673 -0.464461 0.288117 0.304232 0.063574 0.0547795 -0.0584936 0.104966 -0.220856 -0.0580346 -0.626928 -0.301105 0.0657167 0.252082 0.28644 -0.355387 0.274727 0.0083999 0.148532 -0.219615 0.0407263 0.0286777 -0.222856 -0.0760123 -0.217307 -0.266543 0.144511 -0.353611 -0.312499 0.0228955 0.466461 0.228574 -0.419923 -0.259963 0.313409 0.364526 -0.06987 -0.463083 0.360995 0.382267 -0.0342287 -0.137333 -0.00240177 -0.370003 -0.0640653 -0.402401 0.184276 0.0255046 -0.58658 -0.184887 0.00127104 0.164165 0.316283 0.04562 0.0937363 -0.491363 -0.318799 -0.143516 -0.144169 0.521293 -0.173448 -0.149375 -0.307429 -0.157587 -0.345314 -0.0780801 -0.122698 -0.218913 -0.313889 0.135396 0.0253671 -0.0206943 0.266636 0.258788 -0.101871 -0.00422563 -0.0103155 -0.307131 0.00862281 -0.454956 0.117612 -0.104496 0.213497 0.104171 0.00569624 -0.48139 0.201739 0.163314 -0.040591 -0.244177 -0.0778851 0.190039 -0.595714 0.0377027 0.131348 0.20671 0.420129 -0.389745 -0.405762 -0.0919362 0.0528557 0.0758194 0.280935 0.0105441 -0.0107503 -0.44436 0.268346 0.378135 0.293806 0.266011 0.229254 -0.274118 -0.122514 -0.192723 -0.0194381 0.188765 -0.682732 -0.336882 -0.651775 0.0951756 0.413232 0.113001 0.0385813 -0.377701 0.0923624 0.118651 0.0879607 -0.12633 0.167803 -0.412623 0.131463 0.0403675 0.0375857 0.109671 0.575078 -0.118036 0.327894 0.308855 -0.188885 -0.0362924 0.550335 0.282398 -0.146744 -0.0846869 0.27956 0.75984 0.532771 0.309267 -0.0743963 0.428398 0.316984 0.082416 -0.106593 0.197354 -0.815875
D罩杯 -0.10206 -0.0590218 0.24457 0.392731 0.147944 0.314453 0.242255 0.17026 0.463923 0.596607 0.20696 0.405187 -0.177122 -0.0785583 0.0674054 0.0495567 0.933283 0.320275 -0.0943383 -0.0898806 0.118835 -0.612439 -0.0581799 -0.138825 -0.316039 0.401962 -0.0892697 -0.334236 -0.278076 -0.245605 -0.430555 0.0327934 -0.0911631 0.559419 0.601406 0.547396 0.112082 0.156301 0.314369 -0.0876566 -0.154066 0.6706 -0.386502 0.0426056 -0.0861343 -0.163925 0.362241 0.216507 -0.294347 0.490101 -0.148806 -0.511444 -0.00633788 -0.0784635 -0.560892 -0.192087 -0.0357799 0.0783381 0.087222 -0.271732 -0.269238 0.444265 0.432411 0.360275 0.0250129 -0.745899 0.201747 -0.0897627 -0.390817 0.193286 -0.299349 -0.520516 0.224399 -0.194881 0.114128 0.339692 0.0379005 -0.821656 0.254145 -0.0194506 0.189456 -0.337608 -0.348303 0.247067 0.475121 -0.519041 0.217324 0.828634 0.0735308 -0.484939 0.290046 -0.0949033 -0.181044 0.209461 -0.179916 0.0314623 0.163435 0.247686 -0.0320624 -0.00621946 0.197338 0.163512 -0.12836 0.243498 0.276929 0.222441 0.0199255 0.372596 0.272075 0.152355 -0.52404 -0.136406 0.29554 0.0338568 -0.0529693 -0.460396 0.0413119 -0.421143 -0.421525 0.0759734 0.0941635 -0.0313006 0.159395 0.415065 0.0454484 0.236969 -0.0466071 -0.0367408 0.384749 -0.487111 -0.0138895 -0.374456 0.548529 0.398386 -0.284994 0.289595 -0.677077 -0.458467 -0.703648 0.228141 0.609966 0.0840368 0.40138 -0.0516021 0.180643 0.0143053 -0.0581195 -0.322207 0.0941899 0.102869 -0.683375 0.563131 -0.510973 0.750052 -0.193321 -0.629473 0.25748 -0.105286 0.410569 0.334611 -0.314789 0.136543 -0.217242 0.011973 -0.361006 0.446932 -0.15007 0.472528 -0.153363 0.0267787 0.284685 -0.279289 -0.0562497 -0.287641 0.339655 -0.0338328 -0.459324 -0.230634 -0.403184 0.198933 0.359439 -0.338852 -0.108483 0.0781847 -0.631605 0.135226 -0.174807 -0.312878 0.170638 0.428194 0.683731 0.729495 0.257042 0.00790074 -0.0266161 -0.427833 0.21758 0.18622 0.139169 -0.384279
文字 -0.0253328 0.149472 -0.263849 0.0241142 0.220645 -0.0393244 0.339295 -0.274956 0.168089 0.146734 -0.329167 -0.204025 0.184835 -0.195429 -0.00319183 0.13495 0.317029 -0.0558099 0.268405 0.0572457 0.029869 0.213309 -0.0210714 0.129066 -0.341838 -0.165319 0.467886 -0.169392 -0.377722 0.209942 0.194487 -0.112102 -0.00241295 0.173235 0.0197855 -0.0289438 -0.145948 -0.257502 0.120435 -0.233904 0.262322 0.0958266 0.144719 0.183804 -0.0580072 -0.258398 -0.06841 0.0954096 -0.0815284 0.127933 0.217941 -0.277915 -0.264887 -0.231702 -0.282907 0.0464315 -0.0311016 0.233517 0.183958 0.20332 -0.433908 -0.316956 0.0659965 -0.321423 -0.177917 -0.212529 0.251477 0.0929544 -0.333681 -0.27077 -0.207183 0.0295039 -0.290106 0.492898 0.104542 0.163199 0.463924 -0.355008 -0.151048 -0.00691503 -0.00454408 -0.296057 -0.382509 -0.00375232 0.340926 -0.0929538 -0.294363 -0.0913364 -0.426787 -0.53897 -0.279092 0.000896911 -0.101327 -0.202714 -0.0782302 -0.333895 -0.366494 0.680117 -0.0959383 0.0369433 -0.146546 0.0852441 0.13739 0.0022206 0.366942 -0.157182 0.149274 -0.262895 0.538002 0.147948 0.271284 -0.24692 -0.225237 0.0895948 -0.453057 -0.157826 -0.375001 0.071195 0.311382 0.30034 -0.146283 -0.0984836 0.115502 -0.0311137 0.0450019 -0.264603 -0.3064 -0.250957 0.397024 -0.188716 0.288793 -0.0237873 0.164686 0.141001 0.00732638 0.128862 0.200815 -0.0178118 -0.158771 0.166115 0.300796 -0.390971 -0.0719212 -0.34605 -0.160978 -0.310959 0.386759 -0.0589933 -0.0762328 -0.108639 -0.3761 -0.0188344 -0.342808 -0.184501 -0.0757438 -0.0308073 -0.138266 -0.272281 0.29695 -0.252913 -0.0209421 -0.0921656 0.0918185 0.049708 -0.301085 0.100811 0.0805661 0.385063 -0.0835023 -0.791021 0.0440222 -0.263551 -0.139189 0.171286 0.319042 -0.0048609 -0.0244897 -0.0794853 0.158675 -0.272057 -0.0757343 0.088614 0.284295 0.0566022 0.242871 -0.0534732 0.156178 -0.0348605 -0.107935 0.294767 0.271014 0.409836 -0.243909 0.278876 0.661867 0.107613 -0.104159 -0.290375 -0.231831 0.485042
小籠包 -0.142178 0.035995 -0.257891 0.21205 0.18542 0.27912 0.028957 -0.712219 -0.0521492 0.0365452 -0.10841 0.220951 0.203716 -0.113609 0.0342797 0.171546 -0.219238 0.407653 -0.276218 0.00474358 -0.0286857 -0.312115 -0.144382 -0.124192 -0.124848 -0.0198732 -0.137465 0.217817 -0.363738 -0.0786249 0.326704 -0.0379025 0.0823183 -0.00873097 -0.0575439 0.458872 -0.454933 0.148032 -0.475649 0.135183 -0.122635 -0.246535 0.433944 -0.0558257 0.231791 0.117758 -0.291711 0.0128368 0.0657796 0.0157335 -0.113241 0.0362053 0.603693 0.387049 0.174191 0.054453 0.21557 0.118467 0.196687 -0.281162 -0.0819104 0.474489 0.000104944 0.156472 -0.331047 0.0667736 0.109969 0.211149 -0.125177 0.0274644 -0.208514 -0.133329 0.0739775 -0.380681 -0.008573 0.00489477 -0.27251 -0.215696 0.133442 -0.845044 0.239738 -0.0621438 0.303845 0.306026 0.137056 -0.207496 0.062477 0.282613 -0.411287 -0.0564176 -0.0130872 0.164615 0.227168 0.0936608 -0.292096 0.190332 -0.131694 0.259388 -0.738383 0.507952 0.18789 0.281201 -0.129983 0.173265 0.0995046 0.515337 0.310285 0.184274 0.0468554 0.321508 -0.467294 -0.00762944 0.0709193 -0.314474 -0.285414 -0.0330806 -0.354163 -0.226098 0.214646 0.197539 0.639049 -0.0178084 0.263694 -0.0357017 -0.123435 -0.181421 -0.0696391 -0.0458892 0.127613 -0.503462 -0.196541 0.0202612 -0.125731 -0.182383 -0.128943 -0.0708224 -0.339245 -0.354327 -0.610291 0.362656 0.246653 0.507417 0.00203595 -0.194385 0.0114596 -0.176656 0.0889733 -0.183227 -0.002824 0.332279 -0.433906 0.197963 0.0233291 -0.0915397 -0.0284826 0.022691 0.0325705 0.103987 0.265024 0.0413241 0.466201 0.156791 0.0434228 -0.0410409 0.358608 0.236107 0.0994896 0.369891 -0.171915 -0.408178 0.0715541 -0.174856 -0.134151 -0.212473 -0.14241 -0.430939 -0.202307 0.491773 0.0942014 0.317301 -0.22671 0.321114 0.132631 -0.023616 -0.134713 0.271593 -0.00628574 0.191617 0.125559 -0.100406 0.227055 0.0125527 0.291582 0.152693 -0.399914 -0.0712205 0.364831 -0.17126 -0.237581 -0.179189
統神 0.211465 0.333545 0.0490959 0.0846641 0.231192 -0.106574 0.0989477 -0.223778 -0.0437651 -0.660782 0.0922754 0.149811 0.00150941 -0.243108 -0.017026 0.0884887 0.277058 0.119141 0.692264 -0.335703 -0.297734 -0.390805 0.0768423 -0.054068 -0.24279 0.148449 -0.213519 -0.0781681 -0.0982782 -0.259384 0.0577225 0.143399 0.0814348 0.17567 0.138412 -0.223341 -0.569102 0.0133993 0.182303 -0.0832912 -0.155818 0.446238 0.130465 0.334417 -0.311972 -0.0305782 -0.227636 -0.187943 0.19839 0.00945534 -0.131595 -0.174739 -0.585317 0.264688 -0.0595475 0.00862405 -0.277911 -0.125978 0.256277 -0.402853 0.138162 0.613515 -0.437097 0.257511 -0.444596 -0.471051 0.206583 -0.246843 -0.20705 -0.137377 0.0763815 0.177486 -0.0255448 0.233398 -0.291171 -0.282091 -0.0568732 -0.0867347 -0.161326 0.372996 0.21592 -0.375847 -0.393568 0.391801 0.324395 -0.0210157 -0.0199736 -0.0079968 0.331418 -0.898726 0.359494 -0.140086 -0.29154 -0.0384461 0.125797 -0.00220054 0.0436763 0.0687834 0.0279154 -0.168016 -0.154502 -0.289836 0.0513529 0.575672 -0.306513 0.289732 -0.0630653 0.43279 0.229366 0.344563 -0.657473 -0.31728 -0.500831 0.0145968 -0.136206 -0.132878 -0.127956 0.233486 0.546948 0.0307221 0.411745 -0.191765 0.109142 -0.520091 -0.00686616 0.117281 0.0108603 0.111748 0.27478 0.143565 0.0471631 -0.402716 -0.24827 -0.733553 -0.158691 0.273395 -0.107851 -0.130378 -0.496032 0.00642577 0.059298 -0.343687 -0.3183 0.0168757 -0.0980211 -0.359688 0.25443 0.182463 0.240691 0.063725 -0.00048018 0.00330139 0.116468 -0.235453 -0.331599 0.157043 0.149952 0.0245518 0.418145 -0.109995 -0.226726 -0.21155 0.123832 0.101151 -0.301464 0.236848 0.0193727 0.434471 -0.241603 -0.191386 -0.0274231 -0.452402 0.0906753 -0.0530004 -0.102253 -0.503252 -0.0850367 -0.207702 0.236253 0.481311 0.288111 0.108908 -0.287687 0.00194961 -0.174141 0.241024 -0.0335814 0.0482702 0.152836 0.170026 0.251053 0.498599 0.622367 -0.186916 0.0494746 0.256728 0.0247403 0.0386325 -0.142682 -0.484461
貓 -0.241433 0.0193648 0.257224 -0.000788411 -0.228495 0.3102 -0.111297 0.0465919 0.474478 0.157289 0.00400105 -0.225128 0.0461022 0.0387574 0.215592 0.095047 -0.214471 -0.181891 -0.0237264 0.00387224 -0.187821 0.225046 0.142804 0.261586 0.337343 0.0115228 -0.319049 -0.296807 -0.460126 -0.101721 0.0892808 0.137565 0.0757178 0.284092 -0.0494716 -0.167457 -0.372735 0.29133 -0.35727 -0.195428 -0.614655 0.354578 0.604277 0.015542 -0.102383 0.0405224 -0.397701 -0.230356 0.252698 0.322208 0.277689 0.212187 -0.00536113 -0.160947 -0.5601 -0.259635 -0.210425 0.259535 0.443092 -0.194989 -0.501339 0.319151 0.101945 0.0191517 -0.150392 0.00330497 -0.0477179 0.0984049 -0.369096 0.0734578 -0.0339485 -0.568039 -0.126369 0.130026 0.0737148 0.0857932 -0.349494 -0.250767 0.0463991 -0.359646 0.0471002 -0.127361 -0.472745 -0.0810362 -0.0191135 0.245409 0.0562957 -0.283906 0.249822 -0.0494108 0.00724233 0.100788 0.155381 0.400091 0.0240114 0.151419 0.326394 0.00914671 0.184936 0.0499642 0.174659 -0.295651 0.271112 -0.171314 -0.42191 -0.103842 0.134741 -0.247293 0.191934 -0.23069 -0.25665 -0.0464191 -0.114407 0.0720797 -0.199883 -0.347188 -0.190159 0.186466 0.0934869 0.139965 0.679405 0.2583 -0.100101 0.0554605 0.206712 -0.0918465 -0.165277 -0.282282 0.0263958 0.365623 -0.0588376 -0.0839602 -0.263597 0.104629 0.00931893 0.23009 -0.137196 -0.105218 -0.597952 0.154088 0.052434 0.0123617 -0.00602519 0.0989571 0.0647282 -0.292578 0.384054 0.461432 0.329422 -0.24521 -0.424267 0.46865 0.53802 0.0456602 0.212765 0.250003 0.315908 0.0295401 0.359975 0.144564 0.230863 -0.0884122 0.187464 -0.182983 -0.0316667 0.0248257 0.133712 0.512962 -0.214233 -0.332537 0.125737 -0.288449 0.114574 -0.266158 -0.169091 0.0431108 0.0404048 0.221839 0.280992 0.462859 0.053659 0.370663 0.259915 0.0566818 0.114804 -0.0442943 -0.340397 0.319628 -0.116191 0.570027 0.175694 0.502581 0.0937999 0.123392 0.446296 -0.223269 0.0385677 0.317244 -0.198969 -0.317959
信 0.20795 -0.19216 -0.452048 0.147258 -0.106223 0.279946 -0.0126578 -0.325664 0.206017 -0.283262 -0.127763 -0.177907 -0.230677 -0.113928 -0.203748 -0.0257719 0.437251 -0.245174 0.0999985 -0.481489 -0.0261108 0.218491 -0.249779 -0.182193 0.345175 0.480994 0.478055 -0.0546786 -0.298438 -0.319742 -0.224252 -0.303865 0.0459717 0.191564 0.262827 0.230891 -0.384971 -0.0165961 -0.35849 -0.215029 0.110685 0.305175 -0.00861837 0.361857 -0.00915462 0.0221004 -0.0769117 0.0396454 -0.402803 -0.341459 0.0116099 0.356768 -0.034227 0.031277 -0.487538 -0.0586514 0.238736 0.396796 0.119508 -0.16443 0.0808381 0.243872 0.12364 -0.0352147 0.47564 -0.636738 0.224073 -0.215331 0.226357 0.0159277 0.237248 -0.432153 0.0943175 0.642851 -0.0475938 0.117984 0.279622 0.0292847 -0.0242194 -0.181666 -0.201825 -0.305892 -0.0255383 0.0938656 -0.0487209 0.215905 -0.0854543 0.155614 -0.373435 -0.30863 -0.205868 -0.00748296 0.144403 0.121888 -0.199489 -0.217333 -0.0285014 -0.149192 -0.177759 -0.386901 0.151963 -0.0526696 0.32899 0.0291968 0.00037639 -0.0638237 0.415145 -0.019347 0.272709 0.236032 0.0848492 -0.155519 -0.195661 0.123987 0.170773 -0.0246807 -0.393438 -0.45379 0.118809 0.154448 0.108696 -0.22692 -0.071297 -0.0889848 -0.0109668 0.184847 -0.285145 0.309184 0.175165 0.043225 -0.212921 0.0632778 0.0152013 0.190283 0.0277336 0.319196 -0.313248 -0.125863 -0.299164 0.261956 0.0363612 0.06042 0.15677 0.152817 0.124788 -0.215185 0.0879749 0.165163 -0.112546 -0.0816027 0.0898744 0.0127841 0.226838 -0.161118 0.180018 -0.114937 -0.574221 0.266861 0.113002 0.152887 -0.10385 0.144152 -0.418328 -0.3386 -0.320197 0.271018 0.0876653 0.359686 -0.477194 -0.385396 0.202546 -0.4651 0.0390723 0.414932 0.202763 0.121699 -0.14216 0.415169 -0.127012 -0.00203845 -0.0309749 0.0878214 0.285196 0.0471507 0.153626 -0.149816 0.166154 0.163108 0.244386 -0.25337 -0.111716 0.396918 0.0378332 0.0310851 -0.00140017 0.141201 -0.318183 0.0804337 0.34983 0.0418691
法老 0.22724 0.262319 0.174279 0.420548 -0.260335 -0.193841 0.819952 0.0524561 -0.534931 0.113734 -0.570938 -0.100898 0.553167 0.305147 0.0362691 -0.295422 -0.223255 0.2887 0.581382 -0.286893 0.00474154 0.29513 0.0656122 0.367484 -0.350995 0.259132 0.494951 0.679201 -0.0987902 0.443968 -0.042592 -0.0581578 -0.0721656 0.48662 0.113693 0.481562 -0.165511 0.207868 0.315403 -0.236366 0.284737 0.0678695 -0.589683 0.0842586 0.00690145 -0.0481309 -0.148322 0.396779 -0.0128843 -0.366553 0.499279 0.128168 -0.079558 -0.0270474 -0.619787 0.0508512 -0.0136454 0.208944 0.32139 -0.096306 -0.367781 0.374239 0.0365256 0.35121 -0.40867 0.0978832 0.226607 -0.238957 -0.105221 0.187852 -0.497232 -0.488564 -0.425566 0.30419 -0.308897 0.124991 0.410025 0.186565 0.445055 0.107464 -0.726494 -0.340367 -0.0379871 0.0650482 -0.0884284 0.0745541 -0.0555117 0.0426907 -0.0941536 -0.275205 0.0833018 -0.236802 -0.0876744 0.0463526 0.326325 -0.825821 0.0478427 0.255749 0.29957 -0.290763 -0.581805 -0.387903 -0.0885074 -0.0496926 0.0356893 -0.187793 -0.078971 -0.316834 0.214626 0.241965 0.269013 0.485334 0.220967 -0.065966 0.348519 -0.303345 -0.458442 -0.00621888 -0.0355859 0.451607 0.146649 -0.0662252 0.322381 -0.158014 0.157041 0.219115 0.0422669 0.0681046 -0.344106 -0.0296607 -0.0183161 -0.172706 0.45856 -0.297616 -0.0976566 0.139091 0.00867059 0.24231 0.15581 0.432819 0.485858 -0.357669 0.0465581 -0.0492727 0.397081 0.249173 0.552164 -0.0265004 0.432027 -0.103547 0.566849 -0.133755 0.209595 -0.164865 0.297956 0.0293294 0.631813 0.229027 0.0801891 0.460325 0.274249 -0.538963 0.695317 -0.325398 -0.318443 -0.0912548 0.0217728 0.234182 0.417847 -0.162535 -0.0560636 0.0812618 0.819531 0.210157 -0.783976 0.196208 -0.173832 -0.00385649 0.101033 -0.192404 0.310861 0.199727 0.160263 -0.296333 0.0665101 0.341167 0.120426 0.217487 -0.155869 0.330567 0.362237 0.662163 -0.110758 -0.713668 0.133218 0.0991927 -0.190757 0.303749 0.55532 -0.268073
屏幕 0.552412 0.791948 0.320274 -0.654756 0.460165 0.0547856 0.0196161 -0.436892 0.177713 0.256372 -0.367091 0.0233615 -0.187607 -0.0960814 -0.412734 -0.268969 1.14963 0.100202 0.130325 -0.0201059 -0.285221 -0.147018 -0.147369 -0.157237 -0.586979 -0.115956 -0.245071 0.152501 -0.467535 -0.0701609 -0.352799 -0.168761 0.673833 -0.193977 -0.488487 0.423376 0.041987 0.714034 -0.116453 -0.0564228 0.253606 0.249228 0.31532 0.293486 0.0679816 -0.205463 -0.409949 0.901287 0.267873 -0.598069 -0.640019 -0.473898 -0.2588 0.124463 -0.118186 -0.202089 0.298346 -0.361426 0.126206 0.230209 -0.111975 0.223844 -0.240806 0.0461599 -0.056214 0.0842683 -0.218009 -0.665734 -0.430452 0.143519 -0.199679 -0.21355 -0.0892437 0.154579 0.39891 0.0965664 0.297689 -0.564443 -0.40055 -0.215817 0.506352 -0.447908 -0.626485 0.397035 -0.461793 -0.0684361 0.155042 -0.252312 -0.511715 -0.163979 0.0796918 0.370689 0.51219 -0.270551 -0.0635025 0.470502 -0.259562 0.456594 -0.289608 -0.0987568 -0.425234 -0.198668 -0.165415 0.144789 0.257588 -0.667738 0.0623608 -0.0167103 -0.521317 0.0794652 0.173709 -0.148195 0.404749 -0.625196 -0.461656 -0.0681902 0.505812 -0.166507 0.182528 0.142688 -0.0696242 -0.259401 -0.360088 0.136052 -0.121584 0.224178 -0.172848 0.411805 0.405424 -0.215441 0.313278 0.570866 0.00971463 -0.378112 -0.243684 -0.244294 -0.217869 -0.456794 -0.518429 0.368566 0.610401 -0.103293 -0.359687 -0.0998326 0.189583 -0.270084 0.47395 -0.282779 0.331711 -0.327081 -0.806874 -0.321852 -0.0472982 0.0430041 0.375017 -0.106843 -0.0555658 -0.307549 -0.34038 0.25416 0.0166133 -0.153967 0.0371327 -0.383071 0.0542221 -0.247039 0.502917 -0.0418973 0.0336831 0.00828937 0.0185683 -0.161757 0.156051 0.361449 0.363589 0.100525 -0.28299 -0.199321 -0.375486 0.362481 0.431436 -0.0571782 0.448351 0.0679549 -0.205614 0.397537 0.0705531 0.0913392 0.120172 0.0989173 0.600421 0.0181336 -0.24079 -0.288647 0.305759 -0.466275 0.390443 -0.0517435 0.14546 -0.529306
網球王子 0.164546 0.225011 -0.195389 0.143432 0.485228 0.405165 0.265589 0.444434 -0.034689 -0.194162 -0.314286 -0.272785 0.330256 0.279517 -0.25575 0.276418 -0.205517 -0.760921 0.639237 0.583364 0.376515 0.0389698 0.529389 -0.216909 -0.00849945 0.354036 -0.0675537 -0.280037 -0.415884 0.0777035 -0.666463 0.074271 0.252783 -0.368624 0.630302 0.447965 -0.645275 0.235204 -0.226214 -0.0372423 0.12433 -0.0781958 -0.172833 -0.147895 0.165007 0.0763084 -0.0218788 -0.0604857 0.231543 -0.239847 -0.0721369 -0.269786 0.0107103 0.285358 -0.773353 -0.0633406 0.234065 0.151688 0.385948 -0.233906 0.214591 0.73037 0.228097 0.199028 0.0320501 0.0471997 0.0660484 0.618636 0.472885 -0.350276 -0.555432 -0.342711 0.370947 -0.348432 0.823668 -0.692685 -0.162618 0.103303 -0.384311 0.0102449 0.210491 -0.804816 -0.0100675 -0.520295 -0.148251 0.512184 -0.3105 0.171185 0.203657 -0.100376 -0.202637 -0.245812 -0.468932 0.616806 0.512975 -0.066519 0.0386427 0.0977677 -0.599861 -0.173467 -0.146545 -0.472526 -0.0351015 0.285722 -0.171774 0.0989183 0.192854 -0.254453 -0.127029 -0.062559 -0.901356 -0.00167981 -0.8947 -0.0407313 -0.177101 0.502822 -0.201696 0.329422 0.0803961 0.736069 0.412812 -0.25822 0.665932 0.0249288 -0.319897 0.258548 0.479336 -0.157606 -0.00955195 -0.301667 -0.0444142 0.452898 -0.404018 -0.66147 0.104594 0.473726 0.178687 -0.319448 -0.618466 0.17984 0.0467679 -0.179182 -0.0361739 -0.310373 0.0647351 -0.674453 -0.162982 0.081819 0.269133 -0.472914 -0.311642 0.144298 -0.547235 -0.296936 -0.353092 0.954334 -0.14701 0.0716162 -0.135764 0.294449 0.00954229 0.048166 -0.484681 -0.534955 0.36155 -0.164488 0.214732 -0.0902278 -0.0898976 -0.332168 0.0707528 0.451764 -0.0697797 -0.0881578 -0.309893 0.0142679 -0.265784 -0.436773 -0.122875 0.364339 0.39582 -0.474584 -0.196098 0.312237 0.0194824 0.173282 0.0681563 -0.267045 -0.0922637 0.283358 0.311926 0.251298 -0.0883819 -0.146457 -0.551008 -0.0812238 -0.680784 -0.0907088 0.127497 -0.033964
黃種人 0.214433 0.338489 -0.396945 0.0540207 -0.465895 -0.0391476 0.00914397 0.108168 0.235103 0.0814281 -0.0165773 0.242546 0.199308 0.208877 -0.235966 -0.186839 0.185919 -0.0160777 0.198053 0.031005 0.133736 -0.287816 0.0561447 0.00553093 0.193938 0.206996 0.243286 0.270653 -0.0340655 0.509604 -0.012544 0.0976059 -0.189714 0.40793 0.210736 0.0379893 -0.263548 0.219582 0.347866 -0.445174 0.283831 0.0250518 0.375243 -0.144028 -0.13118 0.0593102 -0.14061 0.260737 0.247184 -0.531829 -0.0402914 0.0430519 0.120856 0.0568658 0.243571 0.0225133 -0.0814433 -0.0584559 0.0231585 -0.256314 -0.389079 0.351772 0.423781 0.018926 0.283484 -0.616056 0.25492 0.0789901 0.668613 -0.203248 -0.551245 0.00622103 0.0546789 0.194582 0.00843864 0.0588207 -0.164783 -0.413712 -0.104233 -0.377998 0.0657485 -0.297151 -0.136338 0.126061 0.356643 0.203207 -0.107008 0.0786939 0.209553 -0.289807 0.0757286 0.171714 -0.120533 0.124661 -0.193549 -0.215633 -0.539988 0.256254 -0.575205 -0.0468336 -0.040837 -0.123726 -0.137314 0.030002 -0.0515299 -0.337192 0.141713 -0.200235 0.125002 0.053892 -0.238388 -0.113422 -0.191183 0.2783 -0.207659 -0.00720245 -0.23213 0.106858 -0.112775 0.172071 0.125582 0.166099 0.01681 -0.104289 -0.0308973 0.0702405 -0.223549 0.315764 0.522981 0.0382077 -0.147063 0.459168 0.0773408 -0.489571 0.0546456 0.196156 0.481912 -0.0342745 -0.265771 0.21588 0.33789 -0.346428 -0.319518 -0.0902339 -0.275517 0.189929 -0.237561 -0.373614 0.348921 -0.271594 -0.115577 0.282219 -0.424006 0.470862 0.227264 -0.109143 0.244916 -0.479344 0.106769 -0.337552 0.0112591 0.0547948 -0.0690841 0.125709 0.414732 0.379948 0.0142961 0.473666 0.275615 -0.210341 -0.207065 -0.0512982 0.135918 0.047058 0.223863 -0.343907 -0.496566 -0.0137554 0.473272 0.140409 -0.118262 0.395988 -0.124061 0.182484 0.215369 -0.0953984 0.0188747 0.2387 0.0712984 0.107908 -0.0507133 0.656744 -0.42194 0.16042 -0.702079 0.00652253 0.176983 -0.0412046 0.0197193 -0.131907
老師 0.110073 -0.139352 -0.0225762 -0.228345 0.260637 -0.0395039 0.286999 0.205456 0.303868 -0.202441 -0.214907 -0.433814 0.19 0.102523 -0.21672 0.12848 -0.0983783 -0.0333188 0.169883 -0.234799 0.00566358 0.103115 -0.152214 0.0152352 0.183027 0.116783 -0.0272215 -0.388607 -0.129585 0.0323046 0.231932 0.0237469 0.0431931 0.401292 0.457431 0.240629 -0.566048 0.250425 -0.207586 -0.376131 0.385148 -0.179564 0.366464 0.00576442 0.0585895 -0.16365 -0.0548976 -0.524284 0.139944 -0.0256421 -0.0461256 0.0958491 -0.417303 0.106285 0.125593 0.0547325 -0.11329 0.187979 0.297481 -0.113798 0.0626578 0.0333093 -0.0824467 0.167832 0.122242 0.0309588 -0.0555468 -0.291362 0.20726 -0.00423746 -0.192711 -0.26721 -0.351615 0.0976853 0.0433722 0.561771 -0.177726 -0.212056 -0.0990014 -0.243949 0.179377 -0.340984 0.177211 0.125372 0.408652 -0.0419361 0.106793 0.174221 0.103369 -0.295243 0.131717 0.0613757 0.435616 0.15063 0.122199 -0.0431608 -0.0080788 0.0511446 0.133005 0.0873575 0.0911221 -0.157241 0.348282 -0.034996 -0.163982 -0.239412 0.181696 -0.211029 0.0478034 0.533156 -0.180617 -0.0947741 0.142394 -0.0745053 0.0125367 -0.251879 0.304228 0.0981829 0.059963 0.219036 0.337958 0.0983584 0.182086 -0.0850796 -0.399315 0.229654 -0.376133 -0.119712 -0.131522 -0.175768 0.252616 -0.00837247 0.0763991 -0.390013 0.00698256 0.203183 0.172911 -0.0702046 -0.0030841 -0.0976247 0.172984 -0.131508 -0.349126 0.042674 0.0683906 -0.184768 -0.361839 0.164499 0.11471 -0.235459 -0.12313 0.0853631 -0.47531 -0.0577262 -0.0583251 -0.50672 -0.210213 0.103022 0.0322285 -0.0511328 0.319143 0.0604507 -0.184067 -0.165189 -0.0460511 0.157848 0.00453809 0.159279 -0.208102 -0.315079 -0.421554 -0.10364 -0.176132 0.161794 -0.0090609 0.248813 0.118876 0.115844 0.0756011 0.218976 0.235304 0.63629 -0.0825085 0.498372 -0.00776413 -0.262199 -0.360432 0.171158 -0.020454 -0.135084 -0.138371 0.201029 0.138758 -0.134917 0.157105 -0.021417 -0.0795897 0.0494835 0.272007 0.0718716
柏林 0.372579 0.318984 0.217057 -0.00584091 -0.0694454 0.434072 0.202501 0.211568 0.307105 0.319239 -0.15951 0.327721 -0.520015 -0.308341 -0.0304776 -0.00250946 0.1354 0.153542 0.491308 0.359671 0.0408433 -0.364438 0.184847 0.554263 -0.187472 0.673124 -0.56846 0.0176094 0.124856 -0.204767 -0.441386 -0.208242 0.135719 0.597372 -0.491665 0.119693 0.0669806 0.536945 0.258032 -0.412606 0.0555917 -0.278139 0.0138241 0.143685 0.253571 0.143305 0.213267 0.195086 -0.158528 -0.254717 0.19306 0.0410583 0.210195 -0.235273 -0.217926 0.188988 -0.425015 -0.120868 -0.159611 -0.30203 -0.0560978 -0.223435 0.100912 0.312635 0.0333981 0.0290919 0.127502 -0.0353015 0.433737 0.0152355 0.016298 -0.298219 0.184986 0.0451134 0.464876 0.44217 0.429345 -0.227091 -0.194616 -0.205013 -0.353236 0.0322778 0.39822 0.256956 0.441147 -0.137758 0.0742224 0.355846 0.267388 -0.545049 -0.194237 0.137843 0.0293779 0.245007 0.0580204 -0.224045 0.380849 0.215735 0.111053 0.194248 -0.74889 -0.417758 -0.0654749 -0.133693 -0.0867138 0.325606 -0.122106 -0.0521452 -0.14463 0.0605962 0.452273 0.272576 -0.182183 -0.325024 0.0521078 -0.309244 -0.505209 0.0420097 -0.201743 0.367636 -0.159727 -0.0988538 0.322849 -0.240062 -0.258674 -0.160015 -0.246033 -0.131463 -0.23472 -0.141673 0.135048 0.0447828 -0.149284 -0.212436 -0.310421 -0.107865 0.148601 0.04279 0.16879 0.36728 0.241164 -0.167627 -0.264738 0.312379 -0.196603 0.16292 0.343006 0.00145849 -0.156398 -0.729446 0.0356678 0.136531 0.44445 0.0853035 0.221363 0.167985 -0.199883 -0.0638259 0.105389 0.41682 0.270328 -0.0682098 0.110764 -0.154462 0.604974 0.412056 -0.132912 0.540604 -0.354374 -0.340152 -0.173379 -0.0201199 -0.230784 0.281656 -0.0333312 0.340824 -0.0924785 0.362837 -0.29176 0.0458676 -0.198312 -0.250938 -0.395071 0.620529 0.222913 -0.187391 0.208887 -0.145934 -0.271342 0.190872 0.540359 0.140876 0.204215 0.128127 -0.0787277 -0.715365 -0.118091 -0.687791 0.569256 -0.119099
皇太極 0.553567 0.134334 -0.340541 0.223858 -0.253641 -0.0520536 0.345775 0.0440677 -0.266161 -0.128087 -0.176762 -0.312075 0.251104 0.146467 0.0572193 -0.230569 -0.26153 0.0562376 0.112544 -0.310265 0.0197198 0.32727 -0.101433 -0.0403937 0.0943981 -0.178128 -0.0447315 0.0522593 0.350846 0.0706175 0.650063 0.120518 -0.470486 -0.0801162 0.149952 -0.687999 0.0792471 -0.0224316 0.13036 -0.325924 0.222883 0.0997339 0.592245 -0.368082 0.147893 0.340453 -0.177332 0.185033 -0.879959 -0.421544 -0.217665 -0.03268 0.284857 -0.0147758 -0.514152 -0.118016 -0.353159 -0.173857 0.3668 -0.0781689 -0.110119 0.58973 -0.248406 -0.210939 -0.180529 -0.0944105 -0.323153 0.274192 0.174577 -0.332789 0.130709 -0.170436 -0.558521 -0.0511707 -0.0451653 0.330584 0.472826 -0.335946 0.0586405 -0.45415 0.103775 -0.372274 0.36448 0.0585883 -0.203966 0.310845 0.352742 0.577418 0.299321 -0.206192 0.0439865 -0.203184 0.445675 -0.146557 0.0489577 0.251848 -0.243613 -0.21502 0.0530629 0.0990302 -0.454946 0.153835 0.570211 -0.205289 0.0343149 0.0565775 0.667328 -0.302664 0.777083 0.865399 0.13893 -0.0771727 0.348557 0.0890463 -0.511302 0.201298 0.0298964 0.445155 0.10831 0.0370244 -0.389733 -0.158079 0.562128 0.181024 -0.0660054 0.356221 0.165829 0.0893432 0.775901 -0.182193 -0.184163 0.51586 -0.0995426 -0.259117 0.293168 -0.0304113 -0.154879 -0.264844 0.0340351 0.39801 -0.2603 0.98817 0.394209 0.209339 -0.0667525 -0.167322 0.0988524 -0.0801223 -0.456074 -0.357058 -0.199433 0.271814 -0.364889 0.660084 0.352347 0.233383 0.13359 0.257675 -0.406646 0.362837 0.442107 -0.159763 0.566573 0.0802657 0.251487 0.421503 0.494456 0.619486 0.26637 -0.303788 -0.770939 0.337054 0.475298 0.50499 -0.580714 -0.185312 -0.273089 0.49452 0.0922539 0.307411 0.158987 0.433139 -0.628132 0.233255 0.0411104 -0.391202 0.170385 -0.0454233 -0.0500251 0.0497831 -0.171931 0.607173 -0.329852 -0.193155 -0.09268 -0.0465291 -0.320241 0.266238 0.349353 -0.0666552
歐巴馬 0.31317 0.29834 -0.000201272 -0.414275 -0.382967 0.0217414 -0.248985 0.4919 0.155663 -0.0520175 -0.116507 0.238638 0.0330462 0.158665 0.0215721 -0.0068881 0.362102 0.184886 0.322432 -0.155411 0.118311 -0.0968786 -0.0460498 0.0785518 -0.073328 0.33109 0.260076 -0.194765 0.262206 0.136312 -0.273902 0.0545938 -0.536832 0.449105 0.190883 0.0587779 0.0621833 0.108416 -0.0110974 -0.25381 0.0534283 0.034796 0.370113 0.297192 0.211431 -0.0490517 -0.248611 0.375469 -0.450114 -0.749165 -0.147748 0.15637 0.194983 0.168586 -0.25139 -0.26034 -0.0389721 -0.0511879 0.296939 -0.203849 -0.28703 0.0303503 0.0135516 -0.185526 -0.0216317 -0.412528 -0.142852 -0.263591 0.231404 -0.316323 -0.121422 -0.633897 0.229109 -0.0444986 0.202981 0.096279 -0.137462 0.200488 0.194616 -0.0846709 -0.106801 0.302532 0.221446 0.276064 0.457461 -0.595846 -0.010364 0.657226 0.20784 -0.764062 0.0862025 0.0384641 -0.259657 0.200685 0.284302 0.155798 -0.465806 -0.0877762 -0.173345 -0.426226 -0.0262165 -0.212545 0.321814 0.000218522 -0.424155 -0.0102389 0.290814 -0.0188805 0.1205 0.0812686 0.101462 -0.426356 -0.0697251 0.135341 -0.211248 -0.157042 -0.0976673 0.570584 0.392813 -0.0421236 0.169148 -0.241497 -0.217504 -0.156252 -0.197823 0.146235 -0.322657 0.0647307 -0.0342409 -0.0693871 0.283087 0.328973 -0.0503701 -0.305745 -0.759872 -0.116168 0.0466794 0.130759 0.17914 -0.00159092 0.0437269 -0.431894 -0.0371173 -0.169754 0.0114269 -0.162343 -0.148941 0.184431 -0.109278 -0.311939 0.174613 0.300197 0.149677 -0.202659 0.0536245 0.174929 -0.0124973 -0.516536 0.387738 -0.00443265 0.1216 -0.0399561 0.425353 -0.314151 0.143086 0.0427001 0.0850772 0.351262 -0.0413665 -0.298846 -0.129846 -0.173763 0.123308 0.757543 0.1422 0.16269 -0.159853 0.115263 -0.209625 -0.0459767 0.240857 -0.336999 0.499711 0.518023 0.0715946 0.265882 -0.0345239 0.261805 0.0570953 0.404728 0.0378011 0.286338 -0.289197 -0.211656 -0.0386639 0.0256783 -0.137505 0.182679 0.276852 -0.262681
弟弟 -0.046258 -0.15601 -0.207002 0.154259 -0.313826 0.00400332 0.183507 -0.112357 0.235474 -0.0662885 -0.0655056 0.00278523 0.134494 0.225651 -0.158858 -0.0573391 0.0151489 0.314078 -0.0708461 0.0880329 -0.00294542 -0.079719 -0.0741312 0.318721 -0.161021 0.058706 -0.119151 -0.0245733 -0.125342 0.177526 0.218295 -0.0589633 0.0428846 0.271758 -0.0184705 0.180285 -0.238483 0.107284 -0.18135 -0.0553597 -0.161676 0.126479 0.0247536 0.309214 -0.166666 0.231178 -0.111652 -0.0734355 -0.273092 -0.28943 0.168108 0.177237 -0.177997 -0.143771 -0.189795 0.166915 0.221085 -0.0617357 0.195696 -0.224827 -0.102748 0.362509 0.0893861 0.126535 -0.0260321 -0.026512 0.223438 -0.297954 0.036828 -0.0671995 -0.14421 -0.0785402 -0.420927 0.156888 -0.244008 0.234575 -0.456279 0.00820741 -0.238917 -0.185963 -0.112394 -0.43953 0.0791878 0.0711973 0.0341041 -0.132044 -0.0208718 0.23719 -0.00914583 -0.170882 0.142497 -0.316005 -0.126902 0.161263 0.057975 -0.0221912 -0.0307401 -0.165533 0.0930963 -0.00792965 -0.0862349 -0.316 0.272341 0.260331 0.0871015 0.0879274 0.0208318 -0.347427 0.193555 0.2777 -0.0271788 -0.127733 -0.0828123 -0.141244 -0.308533 -0.111066 0.25845 0.135784 0.401186 0.0299236 0.0993438 -0.269203 0.242754 -0.248244 -0.0244736 0.358473 -0.184746 0.0395347 -0.194003 0.0156069 0.0759811 -0.155615 0.0311215 -0.555799 0.193106 -0.0304261 -0.0842469 -0.215657 -0.0104869 0.159942 0.31286 -0.043088 -0.130495 0.0522318 0.0487051 -0.0293675 -0.0368763 0.251953 -0.00857561 0.125488 0.191452 0.0326995 0.113547 0.0811417 -0.191774 -0.321657 0.213514 0.0492981 0.224728 -0.0873009 0.0990994 -0.14211 0.0512324 -0.357488 -0.206219 0.375352 -0.0428853 -0.245558 -0.270665 -0.126588 -0.303686 0.0451218 -0.244905 -0.165811 0.132854 -0.0894811 -0.0565413 0.121317 0.139998 0.0948047 -0.168236 0.677688 0.0616666 0.164474 -0.161993 -0.0371487 -0.246434 -0.0453884 -0.0060041 -0.0289084 0.0646408 0.736382 -0.140049 -0.232914 0.283434 0.0811203 -0.078961 -0.075231 0.184341 -0.255423
有錢 -0.0685817 -0.125189 -0.223885 0.119963 -0.432501 0.05083 0.318316 -0.135229 0.0256375 0.12789 0.30522 0.402197 -0.162019 -0.000484226 -0.0978447 -0.121344 -0.168819 0.284763 -0.00682791 -0.280749 -0.140135 -0.0166127 -0.25844 -0.0835855 0.107387 0.41743 -0.142576 0.00979731 0.0753124 0.401633 -0.189425 -0.0543235 -0.376254 0.45423 0.458262 0.175395 -0.146922 0.0357536 0.0782814 -0.110926 0.266363 -0.3036 -0.0377263 0.214942 -0.248511 0.480765 -0.169622 0.0212818 -0.252728 0.0302564 0.0417271 0.281883 -0.0432036 -0.262768 -0.097667 -0.00888875 -0.0307656 -0.109907 0.176334 -0.0246746 -0.202804 0.335676 0.01247 0.101035 0.109937 -0.451271 0.0392512 0.147171 0.546617 0.0230202 0.0101161 -0.318541 0.0995914 -0.366487 -0.241856 0.132779 0.112458 -0.336147 -0.0248416 0.280001 -0.174432 -0.410375 -0.18494 0.220775 -0.108932 0.0291741 -0.00464036 -0.251972 -0.317306 -0.546309 0.158313 -0.162492 0.130656 0.0294485 -0.0926903 0.183825 0.106491 0.206184 -0.0208709 -0.0576279 0.100123 -0.0575096 0.109194 0.337219 0.0231155 -0.194891 0.294545 0.115712 0.316419 0.316067 -0.0782221 -0.0734323 0.0661133 -0.0768095 0.0553594 0.162116 0.183221 -0.0693238 -0.0926023 0.416056 0.0621019 -0.11671 -0.0178697 -0.116409 -0.386136 -0.272248 0.148086 -0.0655327 0.174545 -0.0353287 -0.150451 -0.1398 -0.00110478 -0.378428 -0.323135 -0.0168315 -0.000831976 -0.121842 -0.0907283 0.0546828 0.184474 0.250971 0.259209 -0.0160534 0.231001 -0.168777 -0.0126345 0.133706 -0.0622978 -0.0205749 -0.081877 0.125977 0.101217 0.130288 0.0796809 -0.36964 0.0520067 0.130063 0.0544218 -0.356479 0.173996 -0.121708 -0.0930639 -0.0517668 0.0959958 -0.134839 -0.0698439 0.742978 -0.109669 -0.145035 -0.260048 -0.184933 -0.0599757 -0.113932 0.286095 0.472036 -0.3329 0.101082 0.319042 0.0414436 0.114132 0.176971 -0.0141047 -0.0762029 -0.105496 0.280313 -0.282166 0.0921575 -0.0712211 -0.149358 0.142171 0.651688 -0.0976435 -0.091757 -0.173731 -0.203854 -0.07741 0.15928 0.233632 -0.26165
計算機 -0.04398 -0.0793635 -0.044453 0.320537 0.0219185 -0.362217 0.138012 -0.296816 0.157286 0.255317 -0.108235 0.131746 0.109963 0.0941766 -0.373903 -0.153606 -0.310632 -0.184447 0.170194 0.0671015 -0.0818324 0.629279 0.474096 0.106264 0.287411 0.173386 0.107486 0.10669 -0.633961 -0.072606 -0.13154 -0.468699 -0.172567 0.0649213 -0.0799815 0.334544 -0.249208 0.880943 -0.309243 -0.0804013 0.350037 -0.0733726 0.344185 0.0610009 0.0916919 -0.348176 -0.463428 0.194644 0.114304 0.108611 -0.0826774 0.0239792 0.119695 0.0154298 -0.0176396 -0.0423099 0.116622 0.0744135 0.662207 0.0324567 0.469882 0.317525 -0.0738316 0.260268 0.259635 0.22528 0.0707494 0.245432 -0.186605 -0.257844 0.0123813 -0.652431 -0.133401 0.0653856 0.297514 0.273118 0.780199 -0.124456 -0.122439 -0.0954823 -0.302992 0.335188 -0.144328 0.077927 -0.0691815 -0.304734 -0.167012 -0.353008 0.140447 0.0349958 0.436634 -0.116916 -0.429715 -0.043035 -0.00891561 0.229819 -0.0556121 0.493289 -0.0734591 -0.153342 -0.704547 0.283595 0.248105 0.0525919 0.2489 -0.148035 0.0319086 0.176075 0.178248 -0.245628 -0.160895 -0.0966096 -0.230196 -0.379298 -0.101191 -0.449942 0.263363 -0.265641 0.227696 -0.00760765 0.208183 -0.0300966 -0.0127494 0.255961 -0.616775 -0.206586 0.123808 -0.028598 0.505654 0.024061 -0.223285 0.180949 -0.026783 -0.370654 -0.420348 -0.156705 0.121618 -0.513723 -0.23551 0.0387124 0.762326 -0.34077 -0.402294 0.212375 0.0180327 -0.188778 0.116984 -0.00280307 -0.0795892 -0.373854 -0.627468 -0.083981 -0.136178 -0.752463 0.0610135 0.0314674 -0.495392 -0.308855 -0.064657 -0.141105 0.179712 0.445907 0.00218635 -0.138702 -0.484973 0.0172331 0.346624 0.158903 -0.121061 -0.219278 -0.625153 0.169942 -0.370914 0.29748 0.498252 0.279481 -0.0666434 0.100259 0.17487 0.178025 0.131355 0.167122 -0.247894 0.66894 -0.614801 0.366393 -0.168475 0.435103 0.321118 0.28897 -0.322422 0.421398 0.206329 -0.672077 0.16618 0.11711 -0.0980385 -0.00856732 0.280223 0.152443
胃藥 0.268867 0.192296 0.104635 0.355476 -0.000263682 0.342852 -0.0735533 -0.0829809 0.150837 -0.348322 0.138703 -0.229232 -0.189271 -0.319614 0.717577 0.449777 -0.0839904 0.422173 -0.383327 0.184885 -0.213555 0.454922 -0.213869 -0.236912 0.237836 0.342378 0.0313527 -0.335482 -0.219859 0.471888 -0.0573209 -0.668538 -0.64711 -0.221719 0.0979469 -0.276931 0.402629 0.162628 -0.591179 -0.48669 -0.084984 0.130812 -0.0715569 0.307377 0.0621373 -0.508963 0.414476 -0.286175 -0.146667 -0.197338 -0.429231 0.394833 0.603313 0.421079 -0.428189 -0.413678 0.0631502 0.270059 -0.108798 -0.0517853 -0.210199 0.424213 0.217817 -0.259181 -0.135669 0.145017 0.105399 -0.340836 0.0788913 -0.245413 -0.331089 -0.8168 -0.344342 0.26894 -0.126828 0.352002 -0.159151 -0.357771 0.0687315 -0.219975 0.118795 0.127912 0.293619 -0.270067 -0.421972 -0.317713 -0.0829338 -0.0418189 -0.59243 0.0500264 -0.19607 -0.037399 0.305265 0.624257 -0.591116 0.128131 -0.512188 -0.0311255 -0.137552 -0.251759 -0.0169203 -0.0184443 -0.122801 0.0325102 0.112466 0.400353 0.0821615 0.38072 0.274095 0.249868 0.1737 -0.167598 -0.48918 0.143491 -0.482099 0.0468961 -0.0780137 0.088742 -0.2875 0.426232 -0.340689 -0.686666 0.437948 0.0168063 0.167565 -0.554055 0.0261811 0.0568861 0.25756 -0.087353 0.519104 -0.125279 -0.0455227 -0.465883 -0.0868587 -0.122753 0.0708904 -0.157152 -0.0377771 -0.500142 0.30863 -0.0703608 -0.431664 -0.331203 0.415758 -0.166528 -0.156998 -0.0870468 0.132104 0.345496 0.0866681 0.0372392 -0.220472 0.10122 0.21757 0.0587099 -0.288372 0.132374 -0.168981 -0.632357 0.0148496 -0.577955 -0.374741 -0.161727 0.709926 -0.441208 0.320558 0.840086 -0.0547748 0.131528 -0.0258545 -0.607004 -0.311905 0.157343 -0.0234088 -0.453075 -0.500203 0.360909 0.212811 0.323155 0.751422 0.213637 -0.544135 0.72393 -0.271008 0.264964 -0.360872 -0.183415 -0.240589 -0.257301 -0.163872 0.877616 0.242181 -0.492198 0.210883 0.880076 -0.289292 -0.0396356 0.00656047 -0.245363
梅克爾 0.429214 0.0861711 0.398354 0.0219692 -0.452391 0.184353 0.0073545 -0.097988 0.106942 0.399927 -0.133807 0.018966 -0.11441 0.119056 -0.103101 0.119803 0.285999 0.127361 -0.036142 0.191462 0.348208 -0.190414 -0.159799 0.0533239 -0.151669 0.356007 0.220807 -0.116081 0.59102 -0.37374 -0.512953 -0.0345587 -0.429738 0.615808 0.155733 -0.189052 -0.0870294 0.570282 -0.410655 -0.151749 0.401924 -0.526349 0.152968 0.122855 0.107369 -0.0918629 -0.702319 0.125674 -0.371776 -0.987776 0.0088019 0.0345518 0.0382648 0.084299 -0.406042 -0.44191 -0.028863 -0.316498 0.27697 -0.29604 -0.266888 -0.000636046 -0.257121 -0.127316 0.260647 -0.518575 0.0769167 -0.496739 0.0914487 -0.493165 -0.265196 -0.71207 0.0961654 0.123994 0.318657 0.230668 0.0991391 0.388161 0.0464104 -0.441652 -0.0912862 0.00724998 0.420904 -0.386674 0.312992 -0.970946 -0.314867 0.616673 0.65827 -0.451355 -0.157495 -0.292219 -0.016108 0.412836 0.380355 0.110345 -0.363727 -0.543024 0.232097 -0.810023 -0.243597 0.0552392 0.195847 0.503309 -0.285924 0.367283 0.487579 0.0702462 0.0738796 -0.141073 -0.150747 -0.186209 -0.15055 0.142104 0.0157976 -0.486356 0.226332 0.167098 0.0919106 0.224932 0.146461 0.0907755 -0.0782183 -0.0336695 -0.0943854 0.440097 -0.313465 -0.513526 -0.0125728 -0.54643 0.0696864 0.156705 -0.258603 -0.0769034 -0.214074 0.264886 0.267711 -0.0918636 -0.0594699 -0.0414473 -0.290839 -0.337607 0.234045 0.109123 0.0633312 -0.130035 0.189345 0.565147 0.145833 -0.408109 0.233028 0.440595 0.23683 -0.27705 -0.0220339 -0.308705 -0.139324 -0.32643 0.553834 0.337036 0.235151 0.227461 0.314621 0.0927601 0.274781 0.527155 -0.170395 0.025299 -0.00892038 -0.734033 -0.0798893 -0.181949 -0.234897 1.25536 -0.0656069 0.113851 -0.0158177 0.383219 -0.968844 0.0764079 0.0323876 0.0432879 0.283208 0.43404 0.216507 0.260581 0.140924 -0.0956267 0.0480751 0.362452 -0.140644 0.356869 0.0731128 -0.587248 0.217026 -0.361489 0.127302 0.010172 -0.139797 -0.411723
頭痛 -0.0313639 -0.0491638 0.39031 -0.420995 0.0733802 -0.00604635 0.0732176 0.0651306 -0.16111 0.240967 -0.270686 -0.0409429 -0.0189982 -0.149556 0.210793 -0.242643 -0.0333957 -0.0811228 -0.233425 0.0860816 -0.220802 0.0554841 -0.0612964 0.154482 0.297952 0.454326 -0.304123 -0.136268 0.040672 0.167186 -0.110092 -0.204449 0.0478822 0.338492 0.477263 0.136532 0.152531 0.00611813 -0.489162 -0.399471 0.125493 -0.263574 0.306925 0.329285 -0.267233 0.0954641 0.0467642 0.324005 0.334144 0.0758451 -0.00653905 -0.0981365 -0.0454429 -0.0507622 -0.470928 0.267979 -0.1611 0.157502 0.0936899 0.0847215 -0.115991 0.0966665 0.414596 -0.214936 0.322353 -0.0723068 -0.244934 -0.539638 -0.00982933 0.379253 0.371444 -0.180552 -0.152776 0.102267 -0.183401 0.153175 0.153361 -0.08621 0.0216905 -0.297234 0.144266 -0.422776 0.152957 -0.624576 -0.15559 -0.346925 -0.025278 0.359622 -0.0292236 -0.374413 0.157958 -0.322203 0.0400698 -0.116931 0.0242354 0.0130127 0.072212 0.0440471 -0.0225502 -0.378302 0.237839 0.187537 -0.068338 0.0385513 0.00732174 0.00345907 0.0503591 -0.153264 0.122593 0.0705074 0.10372 0.00774734 0.0933235 -0.0605833 -0.113996 -0.0359918 -0.0238996 -0.130737 -0.280954 0.174572 -0.255711 -0.095627 0.42158 -0.471728 -0.0298511 -0.185511 0.0652556 -0.0789846 0.231471 -0.118679 0.0457299 -0.526407 0.118737 -0.272452 0.161647 -0.159025 -0.239035 0.0990218 0.310194 0.084375 0.00585147 -0.0677416 -0.390661 -0.0326675 0.0991879 -0.234057 -0.2338 0.202892 0.107437 -0.153875 0.062061 -0.018427 -0.135755 0.167704 0.578209 0.13332 -0.108894 -0.463101 0.1482 0.178394 -0.0131883 0.128736 0.0647649 -0.190543 0.381582 -0.172381 0.456554 0.37412 0.0803137 -0.184744 0.0811525 -0.209483 -0.317029 0.172371 0.59554 0.148484 0.0564955 -0.0474706 0.0587708 0.440536 0.0626615 0.535041 -0.500567 0.172438 0.0222722 0.257903 -0.144061 0.23566 -0.19592 -0.285316 0.0137281 0.306775 0.166894 0.026891 0.650861 0.0568864 0.0942843 0.161762 0.371411 -0.570711
盤子 0.112332 0.208639 0.134567 -0.323597 -0.0917006 0.020347 0.025759 0.0305858 0.237704 -0.0338917 -0.266834 -0.145255 -0.0290057 0.0543753 0.0163638 -0.249087 0.121221 0.262441 -0.413808 -0.222955 0.126214 0.0979339 0.3276 0.349049 0.371416 0.0891892 0.131507 -0.0975982 -0.430277 0.296864 0.383616 0.0735071 0.0806945 -0.0201928 0.043265 0.119862 -0.456445 0.508296 -0.0152258 -0.293059 0.0251129 -0.185785 0.0478443 0.0234333 0.109551 0.190796 -0.190864 0.107075 0.126666 0.174789 -0.0104411 0.415078 0.398087 0.0533529 0.00810568 -0.399524 -0.22935 0.228978 0.245072 0.0943812 -0.224973 0.214882 -0.28076 0.0413604 -0.220145 -0.00248325 0.242153 -0.0457904 -0.113872 -0.00512482 -0.240975 0.0381078 0.0938846 -0.133 -0.0134431 0.272347 0.0307955 -0.410525 0.0445913 0.264535 -0.226834 -0.00651022 -0.584286 0.212235 0.325452 0.0638276 -0.576681 0.117761 -0.609521 0.0189062 -0.332532 -0.221087 0.09251 0.229856 -0.270208 -0.104208 0.194898 -0.0415912 -0.0225763 -0.0519137 -0.471641 -0.273356 0.158778 0.0023097 0.339614 0.0906621 0.0890201 -0.0427117 -0.109637 0.132632 -0.0873196 -0.0777753 -0.0362708 -0.213489 -0.026224 0.0854452 0.165274 0.0922124 -0.409226 0.449873 0.214508 -0.62554 -0.0317999 0.0448164 0.21568 -0.0290191 -0.311054 -0.102185 0.288761 -0.0049534 -0.127064 0.121151 0.140857 0.0322245 -0.0271706 -0.314789 0.256365 -0.209344 -0.238344 0.0309523 0.529574 0.0229241 -0.153886 -0.00898785 -0.129372 0.296467 0.0261315 -0.0205663 -0.0320594 0.0387109 -0.088136 -0.0414017 0.340851 0.435361 0.138423 -0.235388 -0.167852 0.077831 -0.163794 0.0286208 0.595605 -0.122297 0.087921 -0.235378 0.154784 0.0679119 0.234886 0.261008 -0.0337194 -0.0225645 -0.517056 0.258541 0.0797355 0.153519 -0.147785 0.0352441 -0.37336 0.230263 0.220971 0.285045 -0.111152 0.268327 0.194473 0.169113 -0.212416 0.470932 0.232302 0.24586 -0.0670122 -0.0467306 0.266759 0.21138 0.109843 -0.195378 0.051552 0.0899664 -0.251868 0.0950556 0.186009 -0.352925
杯子 0.12487 0.0722046 0.0661937 0.0111954 -0.127256 0.0096804 -0.192262 -0.0673389 0.085946 0.152146 -0.0236962 -0.202795 -0.0804805 -0.29182 0.114499 -0.293819 0.201714 0.298236 -0.425913 -0.135208 0.0218642 0.00999702 0.564055 0.121313 0.39368 0.0571607 0.127722 -0.247659 -0.0415881 0.375892 0.218415 -0.322725 0.283633 0.378443 0.0632216 0.0259992 -0.303706 0.420409 -0.0832675 -0.0881525 0.144041 -0.2307 0.046622 -0.0926546 -0.0754065 0.0624148 -0.318591 0.296082 0.14929 -0.0851042 -0.101796 0.243271 0.458783 -0.133142 -0.250219 -0.780637 -0.0726494 0.167865 0.0765074 0.1344 -0.36742 0.224815 -0.0349751 -0.0794213 0.0294291 0.297909 0.256787 -0.184112 -0.0951526 -0.0342549 -0.237874 -0.208009 -0.137119 -0.0562211 -0.0315794 0.0551542 -0.218878 -0.498036 0.0836385 0.279649 0.0533293 0.0922356 -0.362041 -0.00405974 0.484404 0.0437047 -0.586918 -0.209789 -0.304965 -0.0252597 -0.315855 -0.303081 0.21474 -0.145866 -0.245997 0.185336 -0.0436353 -0.0866357 0.111566 -0.0593922 -0.194831 -0.164453 0.0126825 0.223296 0.274713 0.0782618 -0.222465 -0.177242 0.0287145 0.13077 -0.158739 0.185208 -0.128095 -0.111521 0.05495 -0.119785 -0.0659691 0.143249 0.0305122 0.218067 -0.0350974 -0.177985 -0.137499 0.0759121 0.0938428 0.00877169 -0.239859 0.0194242 -0.0144149 -0.34907 -0.216745 -0.0839382 -0.0385678 0.1032 -0.164903 -0.380474 -0.163855 -0.717787 -0.237197 -0.14108 0.442512 0.257932 -0.0610687 -0.291723 0.0192693 -0.0703619 -0.243384 -0.143569 -0.0985403 0.0732373 -0.15768 0.0118665 0.147321 0.371076 0.00383336 0.040763 0.0132878 0.0449566 -0.363015 0.0525789 0.61162 -0.409539 -0.188215 -0.373107 0.158423 0.144933 0.162702 0.325314 -0.0992528 -0.125735 -0.00105212 0.00189306 -0.0446187 0.184578 -0.0581316 0.434041 -0.395427 0.250922 -0.0657532 0.3992 0.0594592 0.488459 0.276963 0.354987 -0.174627 0.813912 0.48127 0.274933 0.116618 -0.17962 0.480328 0.425335 0.0828345 -0.273079 0.0550464 0.0793082 0.042466 -0.333828 -0.104126 -0.68591
一千 -0.138731 -0.0704264 0.22618 0.436641 0.332453 0.0586063 0.247152 -0.299263 0.110239 -0.154651 0.0454418 -0.215795 -0.157954 -0.1916 0.134103 -0.146455 0.378313 0.142905 0.282574 0.075614 0.0960189 -0.0344806 0.114433 -0.168893 0.466306 0.271688 0.185839 0.411555 -0.0237995 0.161241 -0.268677 -0.184054 -0.26861 0.301435 -0.0548298 -0.201813 0.0180175 0.10385 -0.112254 -0.232699 -0.185771 0.0364752 0.240165 0.391139 -0.0333644 0.246035 0.170165 -0.16273 -0.515266 0.129662 -0.291195 0.265748 0.181093 0.203616 -0.446568 0.217196 -0.0886146 0.111968 0.0803558 0.0213369 -0.243791 0.401745 -0.17282 0.0193048 -0.133729 -0.375053 0.137986 -0.44441 -0.310277 -0.062887 0.00264344 -0.189818 0.155021 -0.329132 0.305105 0.227955 0.0924681 -0.494209 -0.120294 -0.103686 -0.432402 -0.207141 -0.0939507 -0.0328725 -0.407537 0.044026 -0.106456 0.0637419 -0.191195 -0.12363 -0.609979 -0.458717 -0.157041 0.550988 0.18361 0.318256 0.372599 0.372347 0.339346 0.345836 0.0709835 -0.140762 0.0838316 0.282585 0.0464283 -0.0866216 -0.154121 -0.392734 -0.218571 -0.107534 0.0107958 -0.438095 -0.271742 0.283875 0.0706027 -0.133356 -0.10579 -0.462491 0.289451 0.145088 0.0458408 -0.076805 0.326666 0.0940228 -0.104614 -0.414514 -0.217461 -0.0952201 0.330546 -0.113126 -0.179861 -0.0939397 0.087108 -0.261116 -0.502273 0.314538 0.0518193 -0.00179928 -0.193309 -0.070253 0.359157 0.0635825 -0.371124 -0.132794 0.366978 -0.194218 0.456381 -0.0145774 -0.266617 0.067125 -0.368759 0.311527 0.0265482 0.0485919 -0.290249 0.0213159 0.247586 0.0173823 0.182796 -0.0318441 0.0246304 0.352583 0.170866 -0.0906593 0.00419926 0.170283 -0.00530184 0.41692 -0.164115 0.242712 -0.425718 -0.680941 0.0141414 0.1998 -0.245468 0.205745 0.0481051 -0.020212 -0.09237 0.586604 -0.0425029 -0.160142 0.272199 -0.336423 -0.354653 0.147494 -0.00998144 -0.114257 -0.0487209 -0.288435 -0.201938 0.48751 0.057893 -0.367666 0.10496 -0.115524 -0.0227314 0.413039 0.676987 0.0220939
師父 -0.133529 -0.0482833 -0.0280049 -0.114483 0.215052 0.0187703 0.258617 -0.317336 0.260662 -0.20765 0.0891042 0.0292199 0.121984 -0.242273 -0.0364367 0.162736 -0.14637 -0.0739317 0.272586 -0.419252 0.359309 0.150937 0.103768 -0.363558 -0.0113194 0.0217925 0.214177 0.170732 -0.189735 -0.255005 0.132474 -0.241426 0.187321 -0.0324719 -0.0359855 -0.120393 -0.319724 0.612299 -0.124923 0.275016 0.429466 0.0912004 -0.168816 0.405535 0.590166 0.0520433 -0.311456 -0.192825 -0.317053 -0.157867 0.223268 0.332312 0.00482014 0.030036 -0.107382 -0.109431 0.349226 0.261946 0.146105 0.0773048 -0.0843894 -0.114896 -0.142926 0.492701 0.612584 -0.202446 -0.0578561 -0.331141 -0.0358853 0.0628138 -0.243281 -0.242315 -0.260147 0.249328 -0.0216841 0.286263 -0.557786 -0.164612 0.065907 -0.286017 -0.215025 -0.4531 -0.116414 0.194216 0.0420742 0.166961 -0.108883 -0.0578052 -0.151398 -0.489785 0.160583 0.357395 0.316831 0.27958 0.594791 -0.0546657 0.00363085 0.268413 -0.457814 0.00960496 -0.164407 0.237851 0.371337 0.289042 0.000775891 -0.0821712 0.364955 -0.343106 0.0508252 0.198024 0.221045 -0.139122 -0.220879 0.0238305 0.0382671 0.263127 -0.02664 -0.132422 0.00217124 0.216871 0.235622 -0.147574 0.428483 0.128682 -0.116223 0.199397 -0.0155616 0.48478 0.187578 0.0158901 -0.588133 -0.349844 -0.120392 -0.759345 -0.139671 -0.000582791 -0.333761 -0.424611 -0.14622 0.0507738 0.35939 0.323874 0.0434941 -0.401276 0.124709 -0.380453 0.21384 0.393322 0.30534 0.608404 -0.0273221 0.365367 -0.323795 -0.151479 0.334016 0.284403 -0.470282 0.177253 0.265963 -0.0781166 0.654631 -0.157145 -0.33313 0.0431347 0.209295 0.325918 0.391153 -0.0308421 -0.307112 0.163262 -0.252557 -0.130145 0.0819064 0.163943 -0.0442501 -0.289252 0.398938 -0.000691798 0.0324586 0.502138 -0.211716 0.144293 -0.227907 0.159837 -0.0341255 0.241023 -0.0816959 -0.00705739 0.14755 0.15922 -0.0192745 0.214963 -0.105987 -0.478273 0.363845 0.0859387 -0.0180891 -0.00803118 0.407587 -0.446966
推 0.040951 -0.00156936 -0.1232 -0.42883 0.0814013 0.178449 0.0495997 -0.00779657 -0.0256838 -0.0143563 0.0126994 0.0466608 -0.103021 -0.0730472 0.181962 0.0502557 -0.176426 0.0451043 0.31153 -0.0751222 -0.161765 0.114451 -0.00567042 -0.0810992 0.153455 0.00389386 0.0200377 0.0509497 0.0473775 -0.175213 0.171146 0.074365 0.138585 0.178915 0.0550211 0.438642 0.0545175 -0.0871279 -0.0779527 -0.121396 -0.0721681 0.12771 0.0067994 0.0147014 0.222962 -0.0775818 -0.267484 0.167524 0.0684675 -0.261809 -0.116561 0.118267 0.106412 -0.150019 0.0306891 -0.0291473 -0.234906 -0.30927 0.163823 0.0958781 -0.282858 0.401354 0.0725144 0.0626837 0.226811 -0.219468 0.0306539 -0.264157 0.0939772 -0.495366 -0.18912 -0.525477 -0.23403 0.0379924 -0.189821 0.311853 0.0522182 -0.030974 -0.118398 -0.300674 -0.0222226 -0.399832 0.0221621 -0.161842 0.243889 -0.097335 -0.0662871 0.0809669 -0.269083 0.0106492 0.0776832 0.262675 0.0941396 0.294321 -0.0175797 -0.0642804 0.0302544 0.308415 0.250964 0.16493 -0.300053 -0.13363 -0.0145155 0.124314 -0.0295108 -0.169155 0.0541169 -0.454647 0.236413 0.0170789 0.068432 -0.00804347 -0.0353513 0.0508341 0.174145 -0.0244527 0.0174224 -0.0851032 0.246809 0.195303 0.388649 -0.454984 0.210387 0.195806 -0.175369 -0.160546 0.0546482 0.0777457 -0.457575 0.161063 -0.150048 -0.0177903 0.384171 0.128364 0.342657 0.0651008 -0.184157 -0.128621 -0.242723 -0.0252609 -0.174545 -0.452691 0.1534 0.0210865 -0.207144 -0.072393 0.326305 -0.319243 -0.238829 0.129391 -0.168434 -0.037983 0.326666 -0.269343 -0.237359 -0.140625 0.145257 0.0860843 -0.155184 -0.116287 0.0124932 -0.170791 0.0601687 -0.219478 -0.21531 0.0449006 0.13432 0.417983 -0.231574 -0.504702 -0.30691 -0.360027 -0.334767 -0.0761698 -0.247789 0.331388 0.0713842 -0.108932 0.144963 0.27715 0.577209 0.20569 -0.200077 0.00552325 -0.175745 0.0379204 -0.197497 0.161865 0.171848 0.136698 0.0539194 0.419257 0.0551563 0.00419388 0.00422963 -0.259859 0.076933 0.0321248 -0.0789751 -0.101179
女僕 0.197069 0.160234 0.0780486 0.168016 0.031716 0.244452 -0.095628 0.173262 0.0909237 -0.110598 0.0402844 -0.262218 -0.169486 -0.0650968 0.185057 -0.399352 0.15802 0.073518 -0.288675 -0.0229497 0.367144 0.141809 0.385832 0.339055 -0.255797 0.75909 0.199236 -7.84725e-05 0.272171 -0.148905 -0.189217 -0.102402 0.017576 0.377034 -0.114685 0.0729376 -0.257072 0.614565 0.170003 -0.270447 -0.10417 0.287141 -0.154305 -0.0762482 0.23942 -0.0410312 -0.387188 -0.339447 0.297969 -0.231315 0.165088 -0.324442 0.332556 0.101603 -0.489009 -0.419144 0.238813 0.363327 0.110351 0.112571 -0.182628 0.630489 0.132341 0.485646 -0.515465 -0.122025 0.319313 -0.0048697 -0.221487 0.524917 -0.0682519 -0.335726 0.0344268 0.00410518 0.0509807 0.195647 -0.164311 -0.195918 -0.469742 -0.503159 0.0857704 0.0493341 -0.256939 0.267082 0.156709 0.172203 -0.468554 0.172393 -0.419552 -0.198075 0.0232777 0.108603 0.109082 0.619775 -0.212734 -0.0861551 -0.047746 0.0478824 0.108672 0.121784 -0.414033 -0.251481 0.614427 -0.103023 -0.169247 0.571822 0.179853 -0.208996 0.222673 0.0773681 -0.432389 0.233966 -0.368525 0.0528719 -0.14193 0.20476 -0.0322013 0.636234 -0.492831 -0.213821 -0.123152 0.427762 -0.197432 -0.0203967 0.235367 -0.177009 -0.0770444 0.267172 0.00583527 -0.354828 0.308677 -0.384782 -0.396035 -0.167843 -0.275219 0.349725 0.284799 -0.291224 -0.269382 0.0565662 0.31907 0.206557 0.035926 0.219536 -0.111534 -0.770604 0.195181 0.264963 0.371228 -0.111941 -0.469425 0.317791 0.421132 -0.38373 -0.181991 -0.260067 0.178084 -0.048381 -0.128574 0.118339 0.0398517 -0.238229 -0.464717 -0.101988 -0.0629806 -0.0256708 -0.214811 0.521803 -0.171851 0.151928 -0.128725 -0.0127479 0.157838 -0.0541586 0.19914 0.228829 0.032113 0.205332 0.136732 0.192618 0.303918 0.397978 -0.199549 0.0856358 0.165261 0.273869 0.176369 -0.156376 0.207876 0.0959593 0.47582 0.536385 0.0368765 -0.350126 -0.316767 -0.0337296 0.577644 0.113713 -0.0638643 -0.186603
鐵公雞 -0.560639 0.283516 0.11309 0.359546 0.0346965 -0.0643359 0.533264 -0.472981 0.137026 0.199389 -0.108993 0.222746 0.26688 0.0725721 -0.145764 -0.269189 -0.137491 0.383636 -0.0253497 -0.0237501 0.204005 0.267125 0.24623 0.293679 -0.00285105 -0.185626 -0.200731 -0.279858 -0.0221709 0.0505534 0.047373 0.210783 0.0249166 0.596527 0.0602432 0.24309 -0.242815 -0.0606986 0.297215 -0.825101 -0.416786 0.262831 0.209249 0.24478 -0.0506161 0.46822 -0.38373 0.066448 -0.242792 0.115834 0.0653637 0.191351 -0.0772616 0.26482 0.391019 0.110319 -0.0405309 0.162862 -0.294855 -0.0565309 -0.689819 0.323367 0.00392047 -0.00665282 0.0515012 -0.0581347 0.407688 0.0347233 -0.077727 0.333907 -0.193308 -0.405198 -0.112298 -0.0424966 0.39909 0.0654257 0.420752 -8.38995e-05 -0.157561 0.00690084 -0.729496 -0.318426 -0.269519 -0.0457724 -0.170045 0.1542 -0.271261 -0.0277636 0.272254 -0.569597 -0.483884 0.0881225 -0.265121 -0.049804 0.0542919 -0.476638 0.059283 0.313179 -0.19986 -0.479342 0.181616 0.1822 -0.0422691 0.419514 0.307199 -0.018261 -0.164574 0.0137173 0.254912 0.195127 -0.248299 0.0880176 0.080975 0.289225 0.0559128 -0.367457 0.0999183 -0.0838225 -0.247625 -0.188636 -0.0580825 0.112298 0.347486 0.109399 0.0590135 0.157922 0.179214 -0.056656 -0.0672482 0.070635 0.285855 0.0829918 -0.0620727 -0.255862 -0.558867 -0.00312829 0.0284537 -0.13184 -0.00377644 0.30052 0.284402 0.597948 0.219613 0.0202446 -0.362726 -0.659321 -0.156362 -0.155761 0.410479 -0.00141292 0.341063 0.390428 0.106253 0.0347727 0.0925595 -0.140389 -0.136518 0.37137 -0.0214364 0.424937 0.0126212 -0.303482 0.0373993 -0.464267 0.291031 0.1531 0.0886284 0.296721 -0.160976 -0.147219 -0.350247 -0.172137 -0.119748 -0.0992015 -0.0905872 0.351642 -0.016341 0.527235 0.464834 0.330885 0.2838 0.103087 0.229365 -0.0608573 0.0800585 0.088825 0.139793 0.0520375 -0.0737506 0.140058 -0.0272204 0.194025 0.104157 0.0233657 0.029208 -0.402407 -0.0330175 0.212034 0.0490491 -0.43765
關東 0.073325 -0.292874 0.105643 0.434434 -0.165466 0.361768 -0.405906 0.532894 -0.1668 -0.265637 -0.0389597 -0.598857 -0.0840002 -0.828752 0.0985303 0.793401 0.465945 -0.290386 0.215587 -0.056571 -0.215792 0.0663138 -0.205651 0.0323276 -0.498135 0.123495 0.0813162 -0.144755 -0.275875 -0.0203652 -0.106995 -0.0672358 -0.294076 -0.180439 0.0865514 0.118139 -0.685483 -0.045499 -0.281747 -0.0102053 0.0293129 0.395844 0.410103 0.42513 0.185969 -0.213449 0.0471306 0.297233 0.163174 -0.225155 -0.072183 0.000146916 0.88563 0.12122 -0.285294 0.332905 0.0295392 -0.0932097 0.244179 -0.174569 0.335099 0.0150808 -0.465868 0.183834 -0.159568 -0.602418 0.581191 0.167894 0.178285 -0.131942 -0.585764 0.058722 0.125715 -0.078137 0.300497 -0.143269 0.0720384 0.217855 -0.205927 -0.600533 -0.277714 -0.374002 0.376562 -0.531462 -0.0339797 -0.346427 0.0231528 0.170855 -0.331725 -0.249894 0.166272 0.105799 -0.273793 -0.0387273 0.709507 -0.106742 0.00747001 0.330354 -0.190204 0.672751 0.230399 0.210837 0.0985262 -0.0108907 0.288753 0.373845 0.2639 -0.0747975 0.195797 0.546615 -0.245596 -0.198951 -0.339885 -0.599057 -0.311247 -0.37908 0.0234414 0.0894953 -0.28153 0.0267246 0.279978 -0.0155976 -0.109201 -0.594296 0.118571 -0.176565 -0.0350542 -0.308187 0.497454 0.110753 0.0766232 -0.0688293 0.222548 -0.393212 0.0974848 -0.0321156 0.179836 -0.412142 -0.374488 0.191562 -0.0273231 0.0876064 0.0255485 -0.118722 0.134878 -0.13366 0.476352 0.376539 -0.0260426 0.394486 -0.14138 0.236277 0.100759 0.0681682 -0.161474 0.150403 0.0261493 -0.375855 -0.407647 0.26558 0.255127 -0.00783899 0.387116 -0.0433644 0.422689 -0.0190155 -0.713371 0.446785 0.121903 -0.39396 0.0290014 -0.31212 -0.265212 -0.253215 -0.481319 0.0893563 0.323604 -0.0911234 0.147548 0.152538 -0.00922546 0.660984 -0.100919 0.162675 -0.421356 0.496806 -0.30382 0.204798 -0.186484 -0.0907394 -0.301432 0.305515 -0.0135637 0.070768 0.055741 0.086391 -0.562245 0.0631905 0.025547 0.0553713
荷蘭 0.0527809 0.057268 -0.132035 0.000319612 -0.2089 0.362852 0.0507798 -0.225236 0.205876 0.177944 -0.0567841 0.178814 -0.0597284 0.427055 0.127876 -0.100007 0.30467 0.0261392 0.209244 -0.132709 -0.325487 -0.428885 0.253718 0.662837 -0.205375 0.16888 -0.0347709 -0.0887086 0.0332769 0.201297 0.0912577 0.216347 -0.135235 0.547556 0.0765692 -0.0944651 -0.355247 0.296326 0.0238629 -0.442501 0.276108 0.184664 0.126961 0.213621 -0.0758915 -0.278177 -0.0667576 0.122107 -0.0012338 -0.360908 -0.270291 -0.125034 0.283054 -0.367008 -0.0933258 0.348488 -0.149981 0.27806 0.145563 0.275868 -0.445954 0.0261935 0.0451139 -0.164497 0.0611534 -0.211426 0.320116 -0.150239 0.253452 -0.297199 -0.441749 0.326442 0.300148 0.209573 0.0322311 -0.0290674 -0.243619 -0.00132052 0.240638 -0.0555376 -0.31449 -0.0700098 0.275128 0.0273935 0.167314 -0.416968 0.102728 0.113941 -0.00714364 -0.191425 0.00835113 -0.109566 -0.0176299 -0.265532 0.179791 0.0116504 0.0219759 -0.0680293 0.271322 -0.149769 -0.124557 -0.352055 -0.141854 -0.215092 0.0627614 0.392692 0.0911203 -0.356879 -0.0198374 0.0491611 0.0309033 0.0188374 -0.064316 -0.0322966 -0.149672 -0.165009 -0.115921 -0.108867 0.0581656 0.06891 0.267937 0.0177599 0.351732 -0.30922 -0.478364 0.215325 0.249649 0.382973 -0.189222 -0.149188 0.164011 0.350055 -0.245105 -0.288825 -0.14846 0.149138 0.659541 -0.147108 -0.0618178 0.0596512 0.439648 -0.266648 -0.00155142 0.0595262 0.201195 0.155832 0.47139 -0.129192 0.208876 -0.522933 -0.120448 -0.00664995 -0.0763676 -0.04388 -0.334459 0.0719214 -0.118479 -0.259355 -0.171378 0.168221 0.215529 -0.143969 0.0242952 -0.0604093 0.579289 -0.0796271 -0.147622 0.262893 0.0675978 -0.642422 -0.607425 -0.188032 -0.117921 0.336899 -0.294515 -0.0151753 -0.393974 0.188011 0.448108 0.0752288 0.0497959 -0.15559 -0.0394103 -0.052145 0.385142 0.0804225 -0.216471 -0.0149255 -0.219938 0.230093 0.406585 0.723488 -0.383721 0.248965 -0.535112 -0.712301 0.192483 -0.185417 0.263953 -0.0530749
壽司 -0.148261 0.161357 -0.476874 0.632499 0.365872 0.0175321 0.0798757 -0.0384265 -0.0949144 -0.0434432 0.0651708 0.0229305 0.243352 -0.207001 0.14428 0.312911 -0.236367 0.422036 0.0585335 0.207854 0.0877588 -0.207282 0.373718 -0.591977 -0.0807478 0.180247 -0.0878686 -0.205729 -0.226455 0.0134006 -0.0197543 -0.191678 -0.624351 -0.218092 0.0973321 0.208235 -0.269826 0.142193 -0.17869 0.356553 -0.213269 0.0221461 0.0966443 0.127989 -0.0407345 0.0459111 0.242849 -0.18008 -0.111201 0.171198 -0.150355 0.181099 0.705514 0.248174 -0.368649 -0.0395274 -0.455737 -0.160958 0.539788 0.0934003 -0.408729 0.188436 -0.0994711 0.143597 -0.251543 -0.221032 0.240168 0.111131 -0.180156 -0.211493 -0.658363 0.270883 0.234197 -0.316576 0.278612 0.163993 -0.39842 -0.284745 -0.305342 -0.668377 -0.233538 -0.0942978 -0.0109907 0.369137 -0.0638057 -0.307418 -0.242732 0.253192 -0.10484 -0.383834 -0.205499 0.187871 -0.21208 0.261999 0.0593736 -0.0656967 -0.139862 0.410624 -0.491519 -0.0719502 0.402884 0.246748 -0.196736 -0.210275 0.10493 0.382937 0.209577 -0.015339 0.0242317 0.365324 -0.324761 0.115432 0.140323 0.0379475 -0.0184913 0.394539 -0.194915 -0.00899303 -0.00597735 0.436104 0.280073 -0.154297 0.260568 0.047715 -0.193642 -0.283441 -0.303694 -0.00344636 -0.0347674 0.180144 0.498334 0.0223678 -0.137967 -0.229863 -0.156361 -0.00975857 -0.0893234 -0.201431 -0.299537 0.130964 0.275923 0.132732 -0.0783284 -0.343368 0.08377 -0.0738296 0.0360142 -0.0788934 -0.0674608 0.387867 -0.230484 0.00990035 -0.224395 0.108223 0.0560393 0.17988 0.264935 0.192347 0.308861 0.506638 0.293312 0.0249503 0.0494294 -0.401636 0.214909 0.0138774 0.0412133 0.170835 -0.187361 -0.491088 -0.246581 -0.137338 -0.361358 0.274601 -0.304111 -0.475715 0.324407 0.155553 -0.136367 -0.245212 -0.0720937 0.278712 -0.182707 -0.0502046 -0.450393 0.569113 -0.083217 -0.192748 0.12523 -0.246894 -0.361981 0.171158 0.0881951 -0.327916 0.374075 0.00105034 -0.0881278 -0.427468 -0.028447 -0.586017
